-11 34 -1 -31 19 40 4 21 -46 -8 -13 31 -3 -21 22 32 4 23 -39 -11 -19 31 -4 -24 19 36 6 18 -45 -9 -18 30 -6 -35 22 35 -10 20 -50 -11 -13 35 -10 -28 11 25 5 23 -51 -4 -14 33 -11 -34 16 40 11 20 -53 -3 -16 28 -10 -34 2 32 6 17 -45 -4 -7 26 -7 -23 -3 25 18 20 -40 -10 -12 31 -3 -26 -29 30 24 7 -46 -7 -5 14 2 -17 -32 18 19 19 -41 -15 -19 17 -5 -24 -22 16 23 13 -49 -1 -14 15 -2 -19 -35 23 11 10 -45 -8 -20 7 10 -21 -34 1 27 9 -49 -7 -21 1 1 -13 -41 -5 17 8 -49 -17 -20 11 -9 -29 -22 -1 25 13 -43 -23 -18 9 -16 -17 -18 10 16 4 -47 -19 -29 12 -2 -14 -22 3 5 -1 -37 -18 -24 3 -10 -27 -10 7 10 16 -28 -8 -29 0 -32 -30 -6 9 26 12 -25 -19 -25 -13 -17 -30 0 16 21 13 -43 -20 -27 -4 -18 -27 -10 2 25 9 -35 -6 -13 0 -13 -25 -4 2 28 10 -37 -5 -11 6 -5 -16 -2 19 8 26 -35 -2 -10 16 5 -19 8 23 5 15 -30 -7 -2 16 6 -20 5 18 7 19 -47 -5 -12 43 5 -32 11 32 4 27 -47 -3 -16 39 1 -32 17 35 6 33 -53 -9 -10 43 -3 -24 23 36 -5 23 -52 -8 -16 38 -10 -20 7 30 1 17 -51 -12 -1 41 6 -22 11 41 9 24 -46 -2 -2 36 -14 -14 17 30 5 14 -54 -12 -5 29 -12 -15 -8 25 21 25 -42 -2 -10 25 8 -6 -24 11 16 3 -44 -18 -12 3 -1 -12 -36 20 32 5 -52 -6 -19 -3 7 -7 -29 2 21 2 -49 -19 -21 4 12 -6 -43 3 25 -9 -40 -6 -13 -10 14 3 -42 6 17 -5 -35 -20 -13 -18 25 3 -52 -12 14 -4 -38 -6 -19 -14 19 13 -50 -5 16 -2 -31 -21 -17 -2 16 29 -59 -7 24 5 -33 -21 -29 -13 1 29 -49 7 24 2 -39 -26 -23 -12 5 28 -33 3 23 7 -35 -16 -25 -30 -13 26 -25 2 19 11 -35 -19 -41 -35 -3 25 -10 -5 30 8 -27 -11 -46 -30 -9 16 -10 0 32 5 -32 -16 -36 -41 -23 7 -16 4 30 5 -21 -14 -35 -24 -15 -2 -10 4 31 0 -23 -6 -29 -20 -14 -14 -10 2 31 14 -23 -9 -29 -18 -16 -24 -8 -5 25 12 -31 -9 -8 -2 -20 -40 0 8 16 15 -34 -10 -11 7 -4 -28 9 16 9 25 -47 -2 -9 28 -5 -35 5 25 -3 25 -49 -2 -15 42 -7 -19 9 32 1 19 -39 -15 -3 35 -1 -27 7 31 5 24 -53 -1 -5 31 0 -18 4 38 -5 25 -52 -14 -17 28 2 -12 6 17 -8 31 -42 -7 -4 34 -18 -5 8 3 11 10 -54 -2 -10 3 -6 3 -1 -7 16 7 -52 -3 -9 1 11 20 -25 -2 11 -15 -45 -19 -14 -11 20 17 -28 -11 15 -15 -28 -18 -9 -12 14 15 -25 -32 18 -17 -15 -23 -21 -6 15 8 -35 -23 21 -19 -2 -27 -6 -8 28 14 -43 -18 13 -24 -15 -32 -18 3 16 22 -38 -22 7 -16 -3 -26 -18 9 16 22 -41 -10 2 -32 0 -41 -18 13 13 12 -54 -24 12 -21 4 -48 -12 13 18 13 -30 0 7 -28 -3 -52 -8 -1 12 20 -21 -8 17 -11 -3 -39 -22 -4 -7 11 -11 8 17 -20 -17 -39 -11 -14 3 10 -2 13 35 -15 -11 -26 -21 -17 -2 6 -14 -1 26 -9 -18 -17 -9 6 -5 0 2 -4 42 -4 -11 -26 -8 14 -14 -13 10 -10 32 -5 -11 -20 -7 17 -20 -30 3 10 40 4 -24 -12 -18 1 -18 -25 23 9 28 4 -33 -8 -21 4 -31 -33 9 11 21 10 -31 -4 -24 -6 -20 -22 -1 21 22 5 -22 -9 -12 1 1 -29 6 14 -1 9 -24 -11 -19 30 -2 -34 12 29 -9 25 -42 0 -7 43 -10 -9 9 36 -6 30 -51 -14 -14 32 -4 -6 18 9 6 19 -38 -6 -7 21 -16 9 16 -8 4 1 -39 -11 -20 6 -6 11 9 -12 2 0 -32 -21 -18 -13 6 16 2 -22 10 0 -28 -19 -20 -17 14 19 -12 -26 11 -16 -19 -24 -5 -14 27 12 -19 -15 3 -7 -13 -26 -11 -7 21 4 -19 -11 -3 -13 -8 -22 -10 -7 24 3 -22 -7 4 -28 -1 -27 5 5 28 10 -26 -18 0 -35 5 -12 -6 -5 26 10 -23 -6 2 -35 -2 -21 8 4 30 1 -29 -18 -6 -49 8 -17 -7 14 14 -1 -22 -15 0 -35 6 -39 -10 4 24 1 -8 -8 1 -37 4 -52 4 -2 21 3 9 3 11 -41 4 -51 2 -10 12 5 8 0 13 -26 16 -70 -6 -23 8 -2 13 8 15 -32 7 -52 -1 -9 0 4 14 -1 23 -32 -1 -43 2 9 -7 -9 13 0 34 -26 -5 -36 -2 20 -3 -8 19 11 26 -25 -8 -35 -6 27 -13 -22 10 7 32 -11 -13 -29 -15 23 -22 -42 17 7 21 -20 -16 -29 -21 -3 -24 -55 22 25 22 -10 -16 -32 -35 -10 -15 -31 6 31 11 3 -16 -13 -25 -24 -2 -37 -3 25 1 1 -17 -17 -16 33 3 -18 15 32 0 33 -54 0 -22 31 -9 -7 6 19 -3 13 -51 -16 -11 30 -17 6 18 -9 -6 14 -34 -4 -10 10 -13 34 20 -24 -19 -6 -44 -21 -21 -1 1 29 13 -23 0 5 -37 -26 -8 -25 16 24 3 -12 -5 -4 -20 -35 -9 -27 19 23 7 -22 -3 7 -15 -27 -19 -43 25 12 -2 -18 3 1 1 -22 -7 -18 13 9 -3 -10 -2 -6 -6 -16 -7 -9 15 10 -7 -11 -18 -2 -1 -12 2 6 11 10 -19 0 -19 -19 1 -13 9 6 11 17 -18 -11 -18 -25 4 -19 13 -1 21 6 -21 -7 -16 -18 5 -12 12 -11 18 0 -24 0 -1 -34 15 -9 11 -13 22 7 -10 -4 -10 -27 18 -12 17 -22 24 12 -4 5 6 -29 23 -11 9 -23 13 3 -1 4 11 -20 10 -12 5 -17 4 -6 -1 16 9 -21 4 -6 14 9 -3 -1 -8 11 13 -21 -4 -18 -4 5 -9 -3 7 5 4 -28 0 -16 -2 23 -6 -14 1 7 8 -34 -6 -6 3 24 -5 -26 14 8 18 -14 -6 -25 -3 14 -28 -28 27 17 14 -20 -5 -35 -14 -6 -28 -46 39 22 14 -7 -7 -34 -35 -8 -25 -44 26 24 -4 -9 0 -22 -30 -22 -4 -38 11 36 3 4 -12 -20 -18 22 -5 -15 21 28 -9 18 -31 -2 -14 23 -14 10 0 2 -4 14 -43 -4 -21 23 -5 24 6 -16 -13 9 -36 -21 -15 13 -5 29 12 -16 -23 -1 -34 -34 -2 -11 2 23 1 -18 -5 1 -17 -33 -12 -33 12 14 5 -14 -6 8 -10 -40 -16 -43 22 15 -1 -13 -16 17 -3 -24 -9 -48 12 4 5 -8 -14 16 -13 -21 -10 -33 18 4 -6 -4 -13 11 -9 -16 -8 -29 11 9 -9 10 -8 21 0 -10 0 -15 9 3 -17 9 -11 1 3 -5 3 3 0 16 -15 0 -13 -5 -2 -3 14 -9 6 6 -25 5 -23 -10 10 7 17 -16 17 7 -25 -6 -18 -8 2 19 13 -10 16 4 -28 -6 -16 -22 11 17 7 -29 9 11 -24 -8 -5 -24 11 31 8 -22 0 2 -21 5 -20 -15 10 10 18 -16 6 3 -6 1 -19 -4 2 1 19 5 7 3 -16 12 -5 -6 11 -3 17 13 3 -11 -6 11 0 -11 7 -12 -4 12 -6 -6 6 4 -5 -6 5 -14 12 5 -15 -21 12 9 -6 -3 7 -26 -6 -2 -17 -27 29 23 0 -15 9 -34 -10 -9 -30 -48 25 35 -6 -7 19 -37 -36 -30 -45 -51 21 29 -9 -16 -2 -35 -47 -37 -12 -27 8 29 -14 -2 -10 -25 -6 19 5 -20 11 18 -7 19 -33 -5 -14 15 -4 15 6 0 -26 28 -35 -14 -13 27 7 12 11 -30 -14 8 -25 -30 -14 1 9 25 10 -28 -16 9 -12 -37 -19 -15 20 15 -4 -24 -11 22 -6 -45 -18 -42 9 17 11 -20 -17 11 -13 -34 -8 -43 2 1 -6 -10 -16 30 -6 -29 -20 -49 1 2 -12 0 -12 17 -6 -25 0 -28 3 7 -7 0 -8 15 -2 -14 0 -31 13 2 -20 8 -17 20 -9 -12 -4 -24 4 3 -26 1 -25 12 -8 5 -6 -6 9 18 -23 -3 -13 9 0 21 10 -10 8 2 -39 5 -9 -1 -3 31 20 -14 12 16 -32 -6 -10 8 0 40 11 -19 7 15 -47 -13 -21 3 -9 43 17 -20 8 0 -36 -10 -27 0 -2 22 29 -25 -3 8 -34 -3 -30 10 -1 26 14 -11 -5 -3 -11 -3 -22 8 -4 9 4 -12 -7 -1 -6 2 -28 11 7 8 12 -4 7 -1 -10 14 -27 -3 8 -6 8 1 0 -9 -7 17 -15 4 15 -13 1 2 -8 -14 18 8 -21 -9 10 -13 14 -16 -14 -32 14 25 -21 -3 10 -38 -7 -30 -29 -40 27 42 -38 -16 6 -32 -20 -38 -42 -46 11 61 -34 -24 1 -33 -47 -25 -32 -46 -10 43 -27 -24 -4 -37 -10 19 -3 -28 1 27 -11 29 -34 -9 -18 29 -3 7 1 -7 -21 29 -24 -31 -30 20 13 27 5 -42 -15 20 -6 -36 -10 -13 20 20 -6 -24 -17 15 -5 -37 -19 -26 18 27 4 -34 -16 25 -2 -27 -14 -37 12 22 1 -18 -14 25 10 -31 -20 -42 4 8 -3 -6 -7 22 7 -22 -6 -38 8 9 -2 9 -16 20 13 -11 -9 -36 13 0 -6 7 -7 11 3 -17 3 -30 6 4 -11 4 -9 23 6 -6 6 -17 3 1 -16 9 -14 14 3 10 -8 -6 11 -3 -13 11 -23 18 1 15 -2 -13 -4 -7 -36 -7 -21 20 1 17 17 3 9 10 -38 -19 -15 7 -1 21 23 7 14 18 -41 -23 -22 21 -15 36 24 -5 -3 6 -46 -16 -22 21 -11 23 33 -7 9 8 -27 -9 -49 25 5 -4 15 -9 -8 1 -16 -7 -41 22 4 -7 19 -5 1 16 -9 6 -37 14 -3 8 8 -10 -3 17 -9 9 -30 11 3 -1 13 -19 -9 15 -1 22 -38 10 14 -1 13 -16 1 -14 -2 17 -24 -8 4 -22 5 -24 -23 -19 9 32 -29 -14 19 -23 -2 -41 -28 -34 11 48 -29 -21 6 -38 -27 -45 -53 -61 -5 76 -44 -18 0 -42 -50 -24 -24 -43 -12 59 -37 -9 -17 -30 -9 19 -4 -29 2 16 -8 23 -45 -14 -28 13 1 5 -8 -12 -16 25 -21 -33 -28 8 7 19 -15 -37 -20 26 -18 -41 -28 -2 8 19 -13 -36 -15 23 -5 -23 -12 -16 12 15 -19 -27 -24 8 4 -26 -12 -32 8 2 -12 -14 -13 8 15 -3 -15 -22 7 7 -9 10 -10 7 4 4 -1 -23 7 -4 -14 9 -4 12 21 -7 -8 -30 11 -15 -11 11 -14 8 22 2 -12 -26 -1 -24 -2 12 -21 7 7 8 -2 -23 0 -31 2 12 -19 11 9 15 3 -15 -5 -35 -4 9 -8 16 0 14 -2 6 0 -12 -16 0 -5 13 -6 9 1 12 -10 16 -47 -1 -6 30 -15 13 17 24 1 22 -42 -25 -22 28 -33 5 15 15 13 20 -26 -22 -44 27 -14 -12 26 7 3 9 -12 -22 -53 22 -8 -12 24 -16 5 19 6 -15 -45 32 3 -14 19 -11 -6 21 -10 -7 -37 26 -6 -2 7 -15 -2 21 -16 3 -38 19 1 4 8 -18 -2 17 -4 13 -28 17 6 -4 2 -30 -10 0 -13 26 -32 3 10 -14 16 -38 -22 -25 -6 38 -30 0 14 -20 16 -44 -25 -52 -25 59 -35 -24 0 -36 -7 -51 -29 -51 -30 88 -44 -16 -3 -31 -53 -18 -20 -45 -23 82 -51 -6 -18 -27 -15 21 -5 -20 -13 5 2 24 -46 -28 -12 10 -10 21 -13 -22 -23 30 -39 -36 -13 11 11 14 -12 -14 -11 29 -8 -27 -11 -10 10 19 -19 -30 -17 17 -6 -18 -18 -10 10 4 -18 -6 -11 4 14 -3 -13 -18 -20 -9 -17 0 -14 14 19 1 2 -16 -23 -24 -9 16 -2 -9 16 7 -6 -25 -27 -32 6 18 -5 3 21 9 -7 -28 -20 -45 0 12 0 10 22 12 -5 -26 -18 -42 8 21 -1 7 23 7 0 -33 -13 -45 12 14 -8 16 21 0 3 -8 -35 -37 3 22 -11 22 9 0 5 20 -20 -16 -19 6 -8 23 1 -11 -2 31 -25 20 -44 1 -16 31 -4 -9 -5 43 -16 30 -29 -16 -34 39 -18 -16 -2 23 2 15 4 -28 -47 42 -23 -18 3 1 -8 10 1 -30 -37 40 -22 -4 7 -23 -6 11 13 -17 -40 21 -7 6 11 -26 -4 11 -12 -10 -25 22 9 13 2 -24 10 12 -6 -19 -12 21 11 9 20 -21 6 9 -12 -15 -14 6 9 7 6 -38 -3 -5 -12 2 -7 -1 13 2 12 -46 -16 -28 -28 10 -17 -13 16 -9 6 -31 -18 -44 -33 36 -23 -30 -11 -26 5 -32 -13 -59 -30 64 -26 -39 -3 -23 -49 -1 -3 -32 -27 89 -49 -16 -18 -40 -13 15 -2 -18 -7 15 -6 30 -45 -28 -14 26 -3 11 -26 -3 -28 38 -41 -23 -21 16 -8 8 -4 -12 -10 30 -12 -18 -7 -4 -6 -4 -12 -4 -10 20 2 13 -4 -8 -21 -17 -16 0 -2 12 9 18 -1 -10 -43 -32 4 13 11 11 24 21 -6 -9 -53 -34 5 20 1 -4 30 21 8 -16 -46 -41 11 15 4 10 30 27 -14 -7 -40 -41 14 20 -1 -1 13 15 -10 -26 -32 -33 20 15 -5 2 7 11 8 -41 -40 -30 31 13 3 8 19 1 -1 -10 -57 -24 12 19 13 -1 8 -2 -18 23 -53 0 -9 28 -2 -7 15 -12 -29 33 -38 21 -20 7 -17 13 10 -8 -37 45 -27 10 2 -9 -31 19 -7 -5 -40 28 -18 21 3 -18 -29 25 -8 7 -19 7 -19 16 14 -22 -30 25 -7 14 -7 -24 -9 22 4 -26 -19 29 6 24 1 -30 -4 14 -14 -35 -15 11 0 30 10 -26 12 -9 -5 -26 -16 -2 6 23 16 -28 -1 -3 -10 -45 3 1 27 24 20 -28 -5 -21 -16 -37 13 -3 17 4 27 -23 -8 -37 -16 -22 15 -12 23 2 23 -14 -19 -32 -35 -4 13 -34 12 -23 20 -7 -2 -31 -35 41 -21 -20 -5 -35 -37 4 20 -25 -21 70 -30 -7 -14 -34 -21 17 -1 -26 -5 14 -9 35 -48 -22 -9 20 -19 -4 -11 -8 -15 30 -30 -7 -20 6 -31 -5 -17 -1 -11 28 -12 10 -2 -5 -35 -17 -13 -3 -8 19 1 13 9 -12 -63 -19 -4 10 11 6 13 24 8 -10 -72 -46 11 7 15 1 12 15 0 -3 -68 -34 15 8 19 10 16 11 -7 -7 -59 -32 20 11 20 -5 12 26 -8 -23 -38 -27 28 14 8 -8 -4 14 13 -38 -53 -24 28 18 8 -8 4 4 3 -46 -40 -11 38 25 22 -32 -3 0 -3 -24 -43 -3 38 27 3 -44 10 -9 -26 29 -54 2 2 20 -4 -60 25 1 -41 47 -42 13 -4 8 -20 -36 9 9 -59 35 -24 14 0 -22 -17 -2 -2 26 -46 33 -33 9 5 -19 -17 19 -4 25 -29 0 -9 2 15 -37 -12 16 2 27 -3 -19 -6 1 14 -19 -7 15 0 27 -8 -29 -5 7 7 -23 -14 3 1 27 -3 -4 11 -11 -10 -35 6 4 17 25 8 -18 -8 -29 -5 -39 6 -5 20 28 25 -16 -21 -37 0 -53 33 -9 28 14 32 1 -26 -32 -7 -49 30 -19 34 -3 24 7 -17 -28 -16 -43 19 -8 13 -22 16 2 -7 -35 -22 -18 3 -19 2 -33 -14 7 25 -25 2 33 -30 12 0 -25 0 15 -9 -31 -6 29 -4 31 -46 -11 -10 24 -18 -7 -2 9 -19 22 -16 -10 -26 10 -26 -7 -5 13 -13 27 -9 23 -9 3 -51 -13 -2 9 -4 19 2 21 -4 6 -61 -36 20 17 12 10 -5 26 16 -8 -56 -39 13 16 5 8 -5 21 10 -10 -49 -18 19 4 21 -5 -2 19 1 -5 -32 -7 29 -1 3 -2 -8 8 1 -26 -38 -6 24 18 17 -13 -16 1 19 -50 -34 -13 41 20 7 -36 -9 -2 9 -50 -31 3 41 25 17 -48 0 -3 -3 -9 -19 2 27 15 5 -72 17 3 -22 33 -21 17 3 9 -5 -70 27 13 -55 43 -18 5 3 -5 -9 -39 26 12 -60 32 -25 6 15 -29 -9 -19 8 15 -35 15 -27 -6 19 -19 4 -2 12 28 -24 -15 -13 6 18 -19 -1 9 -3 22 -9 -36 -18 6 12 -27 -9 18 0 23 -4 -16 -6 -12 0 -9 1 10 -11 33 1 -20 -8 -14 12 -17 0 16 8 13 4 -8 -10 -31 19 -25 22 7 11 6 26 -1 -20 -20 5 -32 25 6 5 8 32 2 -23 -26 2 -41 31 -5 15 -18 27 6 -32 -28 -5 -48 17 -7 3 -24 19 13 -1 -35 -6 -30 12 -1 13 -42 -8 23 22 -34 3 -8 -12 18 -7 -18 -15 25 -13 -15 2 29 -3 36 -49 -14 -13 23 1 -1 -2 17 -13 28 -33 1 -17 8 -26 -12 4 5 -23 19 -17 11 9 3 -44 -23 12 3 -1 3 -11 18 17 6 -40 -31 21 -7 8 7 -24 14 7 -16 -27 -20 29 -13 4 4 -19 3 8 -12 -22 -27 22 -4 19 -6 -32 15 12 -18 -26 -14 25 4 16 -19 -24 -4 20 -27 -15 -9 30 17 7 -13 -21 2 19 -48 1 2 27 22 20 -40 -12 -2 8 -38 -4 4 26 24 24 -59 -1 -5 -21 12 2 15 20 16 1 -72 9 6 -33 25 -1 11 -2 6 7 -50 26 11 -58 37 3 8 -3 -11 6 -41 12 14 -62 43 -15 -5 16 -22 15 -12 8 15 -46 5 -17 1 18 -20 2 7 1 21 -34 -22 -17 -4 26 -24 -4 4 4 16 -12 -41 -12 3 30 -13 -11 22 -5 24 -14 -28 -9 2 14 3 -8 21 -12 19 7 -16 -14 -10 19 -3 5 12 -14 6 11 -16 -17 -6 14 -3 22 16 -17 -1 10 -12 -29 -4 8 -22 16 23 -16 -13 30 -2 -18 -21 10 -18 25 4 -19 -27 19 0 -13 -19 8 -22 22 11 -5 -44 22 10 6 -15 -3 -14 7 -7 -18 -32 -7 13 33 -37 -3 3 -27 10 -8 -12 -10 33 -17 -16 4 38 -8 32 -50 -16 -23 34 1 -3 10 -1 -16 16 -38 0 -4 15 3 5 11 0 -41 5 -23 -1 17 -10 -7 -4 13 -19 -17 -5 -36 17 14 -19 -5 -14 9 -18 0 -6 -40 4 8 -24 1 -24 24 -28 11 1 -28 8 18 -24 -11 -17 18 -7 4 -8 -18 6 24 -22 1 -16 25 -14 12 -6 -30 7 19 -26 -1 -24 19 -4 23 -28 -22 -6 5 -47 18 -15 22 11 16 -30 -9 -1 4 -18 9 -6 14 16 19 -42 9 -8 -22 14 20 7 4 0 6 -44 19 -4 -55 32 9 -4 6 -21 1 -26 12 -7 -66 30 0 -8 19 -23 3 -13 8 -11 -61 28 7 -7 25 -19 8 1 9 6 -36 0 -7 -6 31 -22 1 11 -3 11 -13 -36 -9 -10 25 -15 -8 11 0 19 -5 -50 -6 -7 30 -11 -8 23 -19 22 -4 -44 -3 15 10 -5 -10 32 -15 -3 1 -19 -5 7 15 -3 -2 23 -22 -21 13 -13 -8 -3 21 -1 6 28 -33 -18 9 4 -19 3 -3 1 2 15 -28 -33 22 -7 4 -10 -1 -6 12 5 -17 -21 27 -6 12 -17 -10 -10 3 14 -21 -43 6 7 27 -22 -15 -10 -10 -6 -23 -35 -22 5 54 -36 -11 -8 -20 7 -16 -24 -22 37 -8 -1 -1 22 -10 26 -38 -12 -23 20 -3 8 8 10 -14 0 -40 1 -3 3 13 12 13 -11 -33 2 -43 4 9 -9 8 7 11 -21 -28 -12 -29 -6 4 -19 8 1 1 -22 -1 -11 -39 -6 15 -32 16 -18 23 -24 -9 -10 -18 1 10 -18 14 -18 28 -20 4 -15 -6 8 23 -9 9 -23 18 -26 17 -16 -2 9 25 -28 7 -34 20 -21 27 -17 -9 5 4 -29 10 -36 15 -15 16 -34 8 11 -1 -5 15 -27 6 -20 21 -38 24 6 -36 14 12 -22 9 -25 12 -35 10 -9 -66 36 10 -11 4 -18 6 -25 14 -20 -63 36 13 -5 30 -29 7 2 8 -4 -57 17 3 -21 35 -29 -6 -5 -5 -3 -32 -13 -3 -3 21 -24 -10 0 -1 14 -13 -55 9 -1 32 -10 -20 7 -3 12 8 -47 5 4 10 6 -2 22 -15 0 15 -42 -9 20 13 -5 -2 20 -27 -5 6 -19 2 20 8 9 9 27 -17 -19 11 -14 -7 7 -2 -1 9 20 -15 -27 2 -17 0 12 -15 2 2 3 -21 -38 7 -7 7 17 -21 3 6 10 -21 -26 15 -2 30 -3 -14 2 2 -9 -17 -47 11 3 43 -14 -18 13 -15 -11 -15 -33 -11 0 56 -39 -25 -7 -28 8 -34 -16 -14 21 -12 9 4 18 -2 9 -42 -7 -36 15 2 33 -14 19 -20 6 -28 5 -10 7 9 32 -14 -1 -46 11 -41 -21 9 -29 9 23 -11 11 -27 -7 -43 -15 12 -46 28 3 -2 -1 -7 -5 -21 0 5 -41 22 -8 11 -8 -8 -20 -5 -1 14 -32 10 -12 17 -10 3 -18 0 0 21 -21 5 -33 15 -30 19 -13 8 3 19 -20 12 -39 8 -37 23 -22 17 9 6 -21 17 -50 -3 -41 27 -39 15 14 -14 3 12 -35 -13 -42 31 -19 19 11 -38 25 18 -39 2 -34 20 -11 18 -8 -52 24 15 -26 14 -30 5 -8 14 -19 -52 24 23 -33 34 -9 7 13 -4 -1 -34 8 14 -22 30 -15 -14 6 -6 -1 -8 -31 1 2 31 4 -13 1 -7 3 0 -53 2 10 22 5 -10 -1 -5 0 2 -44 0 9 5 4 8 5 -15 4 14 -26 -8 12 -8 6 -2 0 -20 -13 -4 -8 6 18 -8 1 1 6 -14 -13 11 -19 13 22 -15 -5 -1 6 -3 -23 11 -15 14 25 -12 -4 -8 -16 -19 -23 4 -14 28 11 -34 6 -12 -12 -1 -29 5 -21 44 -12 -34 0 -14 -18 -13 -31 0 -9 56 -23 -15 9 -16 -20 -26 -42 -12 9 62 -32 -25 2 -21 4 -46 -16 -18 18 -13 5 2 8 3 25 -39 -8 -42 -2 8 43 -24 3 -17 0 -41 -10 -9 -15 22 37 -15 19 -44 11 -43 -23 0 -30 26 22 -8 11 -32 -5 -34 -30 -5 -39 30 11 -13 13 -19 -20 -28 -17 15 -45 17 2 -15 13 -13 -23 -14 -9 1 -12 22 1 -9 -5 -10 -29 6 -12 11 -3 10 -24 -2 -2 9 -27 16 3 30 -14 6 -35 -13 -24 16 -42 18 8 18 -7 21 -37 -16 -21 30 -30 20 -3 8 12 22 -41 -18 -34 28 -29 16 -8 -16 16 16 -44 -3 -21 17 -2 10 -22 -31 32 16 -35 8 -8 11 13 -13 -7 -31 23 10 -23 25 -10 -1 -3 -13 4 -26 -5 14 -4 22 5 -3 6 -12 2 -9 -14 5 10 2 2 0 -3 -6 -3 1 -31 9 23 7 -2 11 -9 -11 -7 -4 -33 4 15 -16 0 13 -6 -6 -6 -1 -8 9 11 -18 5 0 -5 -10 -14 -4 -17 17 17 -29 12 16 -26 -9 -7 -1 -11 11 20 -18 4 15 -15 7 -19 7 -24 25 17 -23 2 -7 -23 -5 -34 5 -17 38 4 -37 -1 -17 -34 4 -41 1 -23 33 -22 -42 17 -12 -34 -16 -35 -16 0 55 -31 -23 23 -26 -9 -20 -37 -15 -5 50 -34 -31 7 -27 4 -46 -20 -12 9 -10 4 11 15 -2 20 -49 -16 -20 16 -2 41 -16 16 -21 6 -33 -21 -10 -3 3 29 -34 16 -32 8 -34 -32 -2 -43 17 37 -21 23 -32 -26 -16 -30 5 -34 24 26 -40 30 -26 -36 -15 -20 4 -32 14 23 -39 22 -27 -44 -2 -17 4 -14 8 6 -39 22 -7 -54 12 -17 15 -7 15 -6 -34 5 0 -34 16 -28 14 -10 17 -7 -29 4 19 -40 8 -21 28 -3 11 -24 -40 8 26 -36 5 -8 9 -4 23 -31 -27 -3 21 -15 4 -30 -12 15 23 -21 -4 3 21 7 -10 -27 -21 18 22 -26 -2 -4 27 9 -24 -10 -7 1 8 -18 5 -3 17 3 -14 1 -6 -3 11 -7 9 0 22 -2 -10 2 -1 -21 6 11 -9 -4 19 -19 -17 -4 7 -15 3 11 -5 2 18 -17 -8 -18 0 -14 14 23 -8 13 17 -20 -13 -13 -6 -15 4 26 -21 9 7 -22 2 -17 -2 -7 15 24 -23 8 5 -30 -1 -4 7 -10 23 7 -21 4 13 -33 2 -19 -3 -21 17 8 -40 12 -1 -52 0 -30 -7 -15 21 -1 -43 22 -5 -32 -3 -21 -19 -11 40 -27 -30 20 -21 -38 -4 -16 -18 -17 43 -40 -19 17 -14 -21 -30 -17 -12 12 43 -26 -14 5 -7 6 -40 2 -17 24 -2 -2 0 24 -1 18 -37 -13 -37 2 2 34 -13 13 -21 5 -34 -16 -6 1 2 41 -24 -2 -26 -10 -36 -23 6 -24 9 35 -26 19 -43 -15 -15 -30 -6 -13 21 20 -30 25 -43 -38 -5 -25 -4 1 20 20 -46 14 -30 -39 6 -38 9 9 14 13 -41 23 -12 -34 0 -35 7 0 12 3 -52 24 -5 -26 9 -42 21 -6 15 9 -42 14 10 -17 0 -38 23 -6 19 -10 -43 5 13 -25 -16 -35 20 -4 8 -13 -22 3 31 -13 -14 -31 7 5 7 -20 -14 11 20 -7 -20 -23 11 -4 2 -15 -14 4 20 10 -9 -15 -4 -5 3 4 -14 -6 32 0 -17 -3 6 4 -9 0 -9 4 33 -16 -18 -12 0 -10 -8 11 -14 2 19 -24 -3 -8 -7 -3 2 11 -15 6 14 -18 -13 -16 -3 -8 14 12 -6 3 22 -33 -10 -20 -9 -7 8 19 -14 10 22 -36 0 -11 2 -2 13 9 -13 0 22 -44 4 -20 6 -14 15 16 -18 11 -3 -43 -2 -13 -5 -18 17 3 -20 3 -3 -46 -4 -12 2 -11 37 -5 -37 10 -7 -47 3 -14 -20 -5 39 -29 -29 17 -14 -39 -17 -6 -17 -8 39 -41 -21 9 -21 -3 -30 4 -27 2 42 -41 -5 13 -13 5 -40 2 -17 26 0 -7 11 10 -8 3 -36 -17 -31 5 -1 25 -16 4 -28 -14 -43 -21 -14 -4 3 23 -18 10 -16 -5 -33 -22 0 -2 13 29 -19 -6 -37 -23 -14 -27 1 15 8 16 -38 -2 -37 -11 4 -33 0 9 20 26 -35 2 -32 -21 4 -32 6 7 15 8 -38 11 -21 -4 11 -47 2 -4 18 19 -38 17 -9 -17 -6 -21 5 2 12 7 -25 13 5 -5 -8 -27 7 5 23 -2 -26 7 25 -2 -11 -21 21 -15 13 0 -17 15 27 -11 -8 -26 11 -26 8 -8 -19 7 25 -8 5 -25 17 -13 -14 -7 -10 13 26 -4 8 -9 15 -16 -7 10 -8 4 27 -12 2 -11 -3 -5 -12 0 -9 10 9 -1 -3 -13 -4 15 3 14 -2 6 15 -18 0 -14 -8 12 11 6 -10 14 14 -19 -3 -14 -7 6 8 4 -7 0 1 -26 -2 -26 -4 5 23 9 -5 2 10 -39 14 -24 -8 -1 12 2 0 13 -6 -35 16 -10 2 -13 14 -5 0 17 -1 -50 11 -7 -14 -30 17 -18 -9 17 -18 -53 -8 -12 -15 -13 36 -22 -9 13 -28 -25 -10 0 -14 -5 26 -38 -12 23 -14 -34 -12 4 -16 6 31 -35 -13 12 -30 -1 -28 -2 -7 9 15 -32 8 3 -7 8 -40 2 -9 14 -6 -2 4 11 -10 13 -35 -1 -24 17 7 25 -1 -2 -12 -16 -33 -16 -25 0 15 29 -12 16 -20 -7 -37 -13 2 25 13 26 -32 -1 -33 2 -20 -15 9 14 13 26 -20 3 -36 -12 -6 -26 6 24 4 6 -33 -6 -35 0 -1 -35 7 18 18 11 -28 -5 -24 -1 -8 -24 17 3 16 3 -21 -1 -23 -2 -3 -13 22 -2 6 11 -17 11 -8 -10 -10 -16 12 -15 5 4 -16 2 -4 -7 -3 -14 14 -20 -2 -6 -4 5 1 -6 10 -22 27 -21 -13 -7 -11 13 15 4 7 -20 26 -16 -10 5 -5 1 5 -7 19 -20 16 -13 -14 1 -17 15 9 -13 24 -19 14 13 -15 8 -3 9 2 -5 16 -27 10 17 -1 2 -10 5 -3 -13 1 -26 -8 26 8 11 3 -4 -5 -11 13 -30 -12 22 13 7 13 1 3 -31 4 -13 -13 4 20 8 17 5 -4 -29 1 -9 -15 -15 19 7 15 9 2 -29 2 -7 -8 -16 11 -9 13 2 -5 -49 -2 9 -10 -18 24 -24 7 6 -17 -45 -9 13 -15 -22 31 -31 -8 14 -14 -18 -11 2 -16 -8 26 -34 -11 27 -22 -21 -6 4 -13 11 22 -28 -5 9 -13 9 -36 8 -11 17 5 -36 -4 10 -11 8 -30 -11 -18 22 0 -8 4 26 -11 9 -44 -10 -27 -1 4 17 -8 1 -8 -4 -43 -10 -27 8 -2 25 -9 18 -9 13 -32 -19 -14 26 -2 19 -20 8 -28 2 -37 -19 5 23 -9 22 -2 -7 -40 3 -22 -20 8 27 -1 22 -18 -15 -48 12 -16 -4 19 14 3 13 -9 4 -37 8 -1 -5 6 13 7 15 -2 3 -30 8 -9 -4 19 10 -5 6 -9 6 -37 -9 9 -4 16 -16 4 6 0 5 -32 -10 8 -4 18 -26 4 5 -9 12 -28 -11 23 -8 11 -22 -5 4 1 3 -20 6 19 -11 21 -7 -4 6 -15 7 -22 -8 12 -13 19 -7 -11 10 -2 7 -15 6 26 -24 11 6 -21 -5 4 6 -3 -1 21 -14 -8 14 -7 1 12 4 -8 4 4 -18 -11 20 -6 7 9 -3 -25 -3 22 -11 -16 17 2 10 -1 -3 -10 -20 8 6 -25 8 11 -9 11 0 -23 -23 5 -3 -20 -17 6 -16 3 0 -12 -33 1 3 -22 -22 14 -15 12 14 -27 -29 4 11 -25 -18 24 -16 -3 8 -36 -22 -9 26 -24 -12 15 -28 -7 13 -23 -16 -10 14 -11 -9 27 -43 -2 25 -25 -16 -17 6 -2 9 14 -25 -7 24 -19 1 -43 0 -13 15 4 -28 1 24 -19 7 -43 -13 -9 35 -3 -8 11 32 2 9 -46 -12 -25 -2 -14 13 -3 17 -4 8 -37 -13 -24 1 -11 14 7 12 -3 12 -36 -17 -24 14 -9 25 2 -1 -12 21 -39 4 -22 7 -21 16 -8 8 -24 23 -32 0 -6 18 -26 18 -1 -5 -38 28 -28 9 -12 2 -31 19 -7 -4 -34 25 -5 16 5 -9 -25 16 -10 8 -31 8 -10 10 0 -15 -21 19 -3 4 -34 8 8 2 11 -27 -15 19 -7 8 -48 14 5 -1 0 -21 -9 8 -16 23 -36 11 13 5 17 -28 -11 6 -14 15 -26 13 9 7 0 -30 -15 7 -7 17 -33 19 16 -9 8 -13 -14 -7 -14 3 -24 8 13 -7 6 -12 -15 8 -5 14 -25 20 14 3 -16 16 -16 -4 -9 11 -38 16 14 6 -20 18 -16 -1 0 -2 -27 10 2 11 -23 26 -6 4 -5 -2 -23 0 14 9 -38 4 -2 -2 -2 1 -27 -13 9 25 -47 -15 0 -14 -11 -7 -35 -7 2 20 -35 -21 1 -26 -18 0 -26 -12 9 36 -24 -9 -2 -31 -3 18 -23 -19 -9 31 -19 6 2 -27 -20 20 -22 -10 -20 18 -7 4 5 -36 -17 10 -11 -18 -24 4 -14 23 5 -26 12 17 -16 10 -47 6 -15 41 6 -27 19 26 -5 3 -53 0 -8 37 -9 -15 9 27 -11 16 -46 -12 -19 13 -7 0 5 21 -2 17 -40 -8 -10 -9 -27 18 10 21 -11 14 -45 6 -17 -2 -24 21 -6 8 -8 31 -42 10 -32 -16 -34 27 -1 -3 -10 24 -49 26 -36 -18 -41 38 -18 -5 -23 28 -31 29 -26 -15 -39 32 -24 -2 -11 34 -30 25 -35 -25 -39 36 -16 8 -17 20 -27 26 -29 -32 -31 19 -13 -4 -36 25 -26 16 -33 -44 -28 21 -12 15 -28 23 -6 18 -17 -45 -29 29 -33 18 -29 15 -9 16 -26 -44 -25 25 -31 18 -26 18 -9 11 -20 -33 -25 25 -25 12 -34 21 -9 0 -14 -31 -20 19 -36 12 -30 23 -3 8 -21 -25 -12 -1 -40 13 -40 17 -4 15 -37 -15 -25 4 -29 2 -35 15 -5 10 -37 -16 -33 -13 -38 -7 -36 17 9 27 -34 5 -20 -19 -37 -7 -40 18 7 30 -39 -6 -24 -22 -18 -10 -32 2 13 20 -45 -4 -24 -9 -8 4 -30 2 7 33 -48 1 -14 -21 -15 7 -22 -5 -12 42 -26 8 -9 -15 -14 21 -13 -14 -16 26 -23 17 3 -20 -14 19 -18 -6 -30 9 -21 32 7 -29 -1 27 -11 -5 -28 14 -18 37 0 -29 -2 21 -1 17 -39 3 -15 22 9 -20 13 24 -10 8 -48 -19 -15 35 -2 -36 5 38 2 27 -42 -8 -6 30 -12 -35 9 33 3 31 -50 -2 -18 22 -21 -7 2 21 -6 21 -41 5 -12 -6 -13 2 -11 2 -10 23 -35 20 -27 -25 -21 1 -18 9 -9 16 -37 30 -29 -25 -33 15 -27 -8 -10 28 -43 31 -35 -25 -40 22 -28 -13 -4 18 -45 14 -45 -23 -52 20 -41 1 -13 23 -48 14 -38 -31 -50 22 -35 0 -7 16 -32 23 -48 -44 -45 24 -37 15 -14 19 -39 14 -40 -48 -49 16 -49 8 -11 17 -41 30 -40 -40 -37 20 -50 4 -8 27 -38 26 -46 -44 -32 7 -54 14 -17 28 -30 18 -53 -42 -36 15 -60 3 -21 37 -22 19 -50 -45 -35 10 -44 10 -14 30 -18 23 -42 -40 -23 2 -60 9 -13 29 -8 23 -50 -26 -30 -7 -57 1 -26 40 -13 22 -36 -1 -25 -4 -55 -6 -21 25 -19 26 -45 25 -33 -12 -54 -13 -12 16 -9 41 -30 32 -25 -9 -33 -3 -16 12 -20 29 -30 29 -29 -12 -17 -4 -5 5 -35 28 -22 25 -22 -31 -9 16 -6 4 -46 23 -26 19 -14 -16 -14 28 -10 2 -38 19 -17 25 -5 -30 -2 29 -8 7 -27 -3 -12 28 -9 -22 18 40 -2 21 -56 -1 -17 37 -8 -33 15 29 -10 29 -46 1
