# conv_0_filter_0
20 60 18 56 88 105 40 74 101
# conv_1_bias
19


# fc_0_weights
-7 29 -5 -10 6 10 5 16 -29 4 1 27 -6 -16 10 23 1 8 -20 -8 1 16 -9 -12 9 7 -8 10 -26 2 -15 26 -9 -15 1 9 -1 8 -15 1 -14 30 -4 -11 13 18 3 13 -18 0 -2 23 -5 -20 3 8 8 13 -21 -14 -14 19 1 -11 -3 22 10 2 -27 0 -11 14 -6 -16 -3 6 19 4 -25 -11 -17 17 -4 -20 -4 11 12 14 -22 -11 -19 25 -14 -13 -19 1 25 11 -20 -8 -11 14 -13 -23 -19 0 14 14 -22 -16 -12 20 2 -19 -16 -2 16 3 -23 -5 -12 10 -9 -21 -26 10 16 -3 -27 -6 -18 24 -7 -24 -19 -3 16 2 -27 -14 -14 13 -8 -12 -10 7 7 3 -30 -13 -13 7 -3 -25 -11 5 6 8 -32 -2 -7 10 -3 -13 -11 -2 17 -1 -33 -10 -12 0 -8 -29 -3 12 24 10 -34 -8 -14 12 -17 -14 -1 6 15 12 -21 -3 -17 18 -19 -24 8 9 19 16 -23 -14 -11 21 -2 -10 -7 10 4 15 -32 -8 -11 19 -11 -19 5 12 0 6 -19 -4 -3 19 -12 -16 15 6 10 7 -25 -7 -6 16 -7 -21 -1 20 0 10 -15 3 -3 16 -6 -16 6 23 3 6 -29 -11 -1 20 -8 -4 2 19 3 19 -15 0 -2 18 -7 -21 14 21 5 20 -26 -6 -11 32 -12 -14 6 6 2 11 -23 -11 -12 28 -4 -14 1 23 -10 14 -28 -9 -15 20 -4 -6 8 12 2 13 -33 -13 1 16 -13 -19 9 7 3 8 -19 -11 -2 21 -1 -6 2 14 10 4 -34 0 -8 8 -8 -7 -14 6 22 2 -18 -7 -21 -1 10 -15 -9 14 23 4 -18 -13 -24 -2 7 -1 -26 1 21 8 -21 -6 -14 -1 5 5 -29 -1 28 8 -25 -9 -25 -10 15 -1 -43 -3 31 -6 -38 -19 -12 -11 12 15 -40 -3 30 7 -30 -9 -23 -3 3 7 -46 -9 27 3 -25 -11 -19 -1 -4 17 -46 -6 15 1 -35 -15 -28 7 -4 14 -23 -12 15 1 -24 -20 -25 -2 -2 13 -19 0 17 3 -30 -8 -26 -23 -5 6 -26 -3 25 4 -36 -17 -36 -25 -15 -5 -19 -6 35 -8 -34 -5 -18 -24 -14 1 -11 -11 25 11 -19 -16 -25 -6 -19 -10 -1 7 37 2 -27 -8 -23 -1 -27 -19 -5 6 35 2 -28 -12 -21 13 -13 -17 -9 -2 31 18 -16 2 -4 24 -2 -24 9 8 10 13 -32 -2 -1 18 -4 -17 13 17 12 2 -31 -2 -5 27 -2 -8 13 11 -3 17 -22 0 -14 28 -1 -16 8 20 6 12 -32 1 -10 26 -6 -6 6 8 -3 14 -21 5 -3 31 -7 -13 6 5 -1 2 -22 -12 -8 19 2 -2 -1 15 -9 7 -26 -10 -13 25 -10 2 10 1 8 16 -17 -1 -11 16 -8 4 -3 8 -3 2 -20 -13 -9 4 -6 5 -10 2 15 -5 -24 -10 -12 -1 5 13 -18 -6 8 -2 -28 -14 -16 -15 17 18 -11 -22 22 -8 -27 -17 -4 -9 15 12 -29 -10 20 -9 -12 -13 -11 -11 23 17 -31 -10 10 -15 -4 -12 -12 2 19 17 -28 -15 9 -13 -8 -19 -14 -2 18 24 -46 -15 10 -17 -3 -28 -17 -1 10 12 -51 -23 7 -12 0 -38 -10 15 18 8 -30 -4 6 -11 0 -28 -26 12 15 23 -33 2 10 -21 -8 -36 -10 -3 11 5 -30 1 23 -15 -9 -35 -30 -19 -4 6 -12 -10 20 -14 -12 -27 -19 -14 -8 14 -5 -3 35 -6 -13 -30 -26 -13 -4 -8 -5 1 38 -15 -7 -13 -17 -8 -11 -15 3 -2 44 -5 -20 -23 -12 4 -16 -35 0 -4 43 2 -23 -9 -17 8 -34 -23 12 8 34 7 -17 -2 -12 4 -10 -27 10 3 33 10 -19 -1 -17 17 -14 -23 14 15 10 2 -30 2 -11 17 3 -19 9 3 -5 17 -11 -11 -7 26 -5 -6 14 15 -1 19 -19 0 -10 25 0 -6 13 15 7 16 -30 1 -13 24 -8 -5 17 11 -3 9 -31 0 -5 11 -1 -6 2 12 -7 5 -27 -12 -8 5 -6 16 12 -7 -13 0 -23 -16 -19 12 13 20 9 -16 -11 -4 -20 -20 -4 -3 3 26 -6 -15 -1 -9 -19 -8 -13 -10 13 14 -6 -12 6 0 -10 -19 -5 -28 24 17 -12 -12 -3 -9 -20 -25 0 -7 24 12 -7 -20 11 -19 -11 -21 -6 3 23 11 -18 -20 -6 -10 1 -14 5 6 23 16 -21 -22 -3 -16 4 -10 2 15 26 11 -13 -12 -3 -36 10 -14 1 17 22 -2 -21 -10 -8 -33 8 -34 13 5 17 6 -18 -17 5 -37 14 -43 8 -4 30 -3 -1 0 12 -35 7 -56 7 -16 13 11 16 -8 4 -41 -1 -56 -4 -17 17 -8 14 7 17 -30 7 -42 5 6 -2 -2 0 -2 27 -25 6 -35 -6 2 2 -10 2 5 33 -27 -5 -29 1 18 -9 -21 0 0 17 -15 -8 -31 -4 24 -18 -30 18 10 29 -15 -12 -21 -20 8 -17 -48 12 17 21 -9 -18 -24 -24 14 -22 -28 22 7 30 -7 -16 -25 -12 9 -12 -30 19 16 12 12 -18 -19 -12 7 -13 -7 12 17 12 13 -20 -1 -7 13 0 -15 12 8 4 14 -30 -5 1 27 -4 -15 -1 7 -4 7 -26 -3 -16 21 -11 9 -2 5 -7 17 -25 -7 -4 21 -7 18 12 -9 -14 3 -36 -6 -10 5 12 27 19 -27 -10 15 -21 -22 -8 2 1 21 1 -25 -19 1 -25 -22 -10 -11 10 26 8 -31 -14 3 -22 -32 -15 -22 12 11 -2 -19 -2 -2 -16 -23 -16 -23 20 18 12 -5 -8 -7 -3 -21 -9 -14 15 18 -2 0 2 -2 -2 -19 -4 -18 17 15 -3 6 -11 -15 -4 -22 11 -3 24 9 -12 5 -7 -15 12 -5 3 13 16 5 -22 -10 -11 -14 1 -20 8 5 19 11 -15 -7 -14 -20 19 -13 8 -10 16 6 -13 -3 -18 -19 16 -13 16 -7 18 9 -18 -8 -4 -27 20 -16 16 -11 14 -8 4 6 -11 -29 14 -29 15 -17 17 -5 7 7 -8 -17 6 -26 18 -1 -2 -7 5 5 7 -29 8 -16 -3 -3 8 2 -8 9 3 -29 3 -20 7 15 -4 -7 2 0 11 -12 -2 -23 -1 19 -17 -33 12 5 0 -10 -8 -30 -10 11 -32 -39 21 10 7 -24 -15 -40 -13 6 -29 -50 34 31 2 -19 -6 -42 -15 11 -28 -40 9 31 4 -7 -5 -20 -15 19 -11 -25 -3 31 0 1 -5 -7 -17 22 -11 -14 11 15 -8 4 -19 -9 -13 18 4 -4 9 22 0 14 -17 -13 -8 12 -8 5 12 13 -6 21 -30 -12 -8 22 -1 14 10 -21 -11 17 -34 -10 -16 -4 7 28 6 -28 -12 10 -23 -24 -11 -18 11 30 3 -17 -21 6 -18 -27 -14 -16 21 21 -1 -23 -4 7 -3 -41 -13 -26 18 9 -2 3 -8 23 -11 -35 -16 -32 9 6 10 7 -13 16 -2 -33 -2 -20 17 10 -3 3 -7 25 8 -18 5 -14 -1 12 -12 11 -12 4 3 -10 -6 -2 10 9 -22 8 -9 -1 -6 -6 -1 -12 4 15 -13 -5 -22 -2 2 14 4 -4 10 9 -34 3 -20 -10 12 21 21 -18 4 5 -29 -6 -24 -28 -2 30 26 -17 5 11 -35 -10 -17 -24 9 37 14 -21 7 1 -28 -3 -13 -23 17 34 19 -13 10 12 -18 10 -9 -12 10 9 16 -2 0 4 -22 14 -7 -19 1 7 12 1 -6 -3 -12 5 -11 -15 -4 -13 1 9 -1 3 -3 15 -6 -8 7 -3 14 -2 -6 -6 10 4 -16 -4 12 -19 8 -10 -25 -25 15 21 -7 -9 1 -31 -3 -12 -30 -49 26 26 -9 -22 5 -35 -28 -14 -35 -32 21 40 -20 -14 12 -43 -32 9 -3 -18 7 32 -4 -5 -3 -20 -24 21 0 -16 11 20 -13 -1 -14 -7 -5 15 2 -2 6 7 -5 24 -34 -1 -13 23 2 9 5 -5 -16 16 -18 -14 -17 8 14 26 -2 -35 -2 19 -27 -32 -22 6 19 17 8 -21 -4 15 -7 -42 -12 -24 21 29 6 -19 -5 24 -6 -34 -5 -30 19 18 1 -14 -1 28 6 -36 -18 -27 11 20 0 -9 -12 26 -5 -28 -9 -34 11 18 0 0 -4 21 -4 -19 0 -28 3 8 -13 1 -20 16 -1 -24 -9 -25 14 3 -17 5 -13 28 -3 -11 7 -13 3 -2 -28 10 -20 21 -3 1 -2 -16 14 9 -31 -2 -25 1 -2 14 10 -4 5 12 -31 -1 -14 6 -10 39 2 -2 13 7 -43 -8 -8 6 -10 38 26 -9 1 4 -50 -9 -21 -6 7 44 22 -15 10 13 -43 -6 -12 10 2 30 24 -19 -5 10 -28 -1 -31 12 1 14 27 -1 -2 6 -17 3 -26 16 14 4 14 -5 -4 8 -5 1 -38 16 7 3 15 3 -5 4 -2 9 -21 -1 3 2 8 -7 -2 2 -1 8 -30 0 -1 -16 20 -19 -17 -26 20 14 -25 -9 3 -29 6 -29 -37 -49 10 30 -29 -21 13 -33 -23 -19 -40 -49 14 53 -25 -17 2 -42 -34 3 -22 -21 -2 41 -16 -17 -8 -27 -19 19 -11 -17 12 28 -1 -4 -16 -9 -18 18 -12 -10 10 9 -14 15 -25 -21 -23 18 -11 2 -11 -12 -2 34 -31 -21 -26 19 13 12 1 -33 -18 20 -23 -36 -20 0 8 21 -10 -33 -22 18 -2 -37 -14 -16 19 24 -8 -28 -17 15 8 -32 -9 -22 2 7 -1 -13 -15 16 -1 -29 -12 -33 2 5 -4 -6 3 6 15 -20 -2 -36 -2 -10 -15 13 -4 17 14 -12 -13 -27 12 -1 -6 6 -22 20 3 -5 -3 -18 11 -6 -8 14 -10 14 10 2 2 -11 6 -11 -10 10 -18 11 3 18 6 -11 11 -21 -23 -2 -10 22 3 10 7 -2 6 -2 -42 -3 -13 16 -1 17 19 -1 -1 4 -45 -20 -25 19 -6 22 17 -1 11 24 -37 -20 -15 21 -19 12 33 7 10 16 -19 -11 -29 29 -11 15 22 2 6 5 -8 -13 -31 26 -13 1 25 -5 -8 11 -4 -8 -38 25 1 -9 17 -14 5 11 -6 6 -42 22 -2 -5 0 -12 0 9 -12 17 -39 17 8 -2 7 -28 0 -1 3 22 -29 -4 17 -22 9 -34 -23 -17 3 27 -43 -15 4 -21 7 -38 -26 -31 -5 41 -38 -14 12 -36 -15 -38 -39 -41 -3 56 -31 -24 0 -44 -22 -17 -15 -34 -6 60 -34 -15 -13 -31 -18 18 -3 -19 -4 34 -19 8 -14 -8 -11 24 -13 -6 7 10 4 23 -29 -24 -23 14 -9 11 -11 -12 -11 29 -28 -29 -25 3 16 13 -16 -28 -8 31 -12 -28 -11 -4 10 19 -20 -27 -6 25 -4 -19 -3 -8 7 18 -25 -12 -4 14 10 -6 -4 -20 -9 8 -15 -9 -7 3 14 -9 -1 -28 -14 0 -6 16 -7 7 17 6 -2 -30 -8 -10 -9 20 -15 3 12 -3 0 -11 8 -21 5 10 -7 6 16 2 -9 -22 -5 -29 -1 17 -12 12 22 8 4 -32 3 -47 9 19 -18 13 17 5 -1 5 -10 -23 -3 9 -3 10 -3 8 14 15 -12 -9 -41 -4 -7 24 -4 -13 14 33 -2 21 -51 -17 -24 20 -23 -9 -3 31 4 12 -32 -29 -39 40 -13 -4 8 13 0 25 -13 -23 -33 41 -18 -12 22 5 0 10 -9 -16 -45 25 -1 -14 30 -16 -1 10 -6 -7 -45 18 10 -6 22 -18 0 21 -11 -1 -36 8 -2 -7 -2 -27 5 11 -5 2 -34 15 12 -12 8 -41 1 15 -9 0 -31 12 11 -5 13 -37 -11 -13 -18 22 -21 -6 18 -16 24 -47 -17 -35 -9 48 -30 -16 15 -32 -10 -36 -27 -44 -17 63 -38 -30 -5 -30 -32 -5 -16 -32 -33 73 -20 -9 -24 -20 -30 13 3 -16 -6 60 -14 2 -22 -2 -7 27 -5 -10 -8 15 -8 37 -29 -17 -19 14 -3 11 -19 4 -14 40 -20 -27 -32 6 -2 6 -18 -12 -16 32 -2 -16 -16 -1 -1 2 -10 -10 -7 25 5 -9 -12 -1 -11 2 -6 1 -7 5 18 -1 5 -8 -29 -16 -14 -5 -5 7 25 10 -8 -15 -23 -32 -4 5 11 3 21 15 -11 -9 -29 -28 -2 10 -7 12 23 6 -5 -7 -29 -48 3 11 -1 0 18 18 4 -26 -28 -43 8 20 1 7 15 18 6 -24 -40 -39 20 20 -5 15 21 10 6 -15 -39 -30 -4 30 8 12 15 -3 -7 15 -47 -2 -30 13 -3 21 -1 -19 -17 33 -26 7 -34 -12 -31 18 -18 -18 -22 29 -5 26 -13 -12 -31 24 -18 -14 -1 18 -8 14 8 -25 -41 35 -22 -9 4 -10 -4 19 11 -18 -39 29 0 0 13 -17 -8 12 -6 -23 -34 18 -2 6 13 -13 6 12 -2 -24 -40 15 15 15 4 -32 -3 15 -4 -25 -19 15 7 -1 7 -26 -14 -4 -14 -28 -14 -3 14 -1 20 -45 -19 -16 -26 -3 -5 -11 8 -5 35 -36 -17 -24 -34 20 -7 -18 10 -22 8 -14 -12 -38 -27 64 -17 -16 -4 -26 -17 -2 -1 -20 -34 66 -33 -12 -15 -20 -24 10 -9 -10 -2 51 -14 7 -18 -2 -4 17 -9 -10 -11 13 3 34 -17 -9 -22 11 -11 -17 -7 8 0 35 -20 -16 -24 20 -16 -3 -26 3 -4 32 -2 -1 -19 -2 -31 -19 -19 6 -12 16 7 16 -3 -8 -38 -18 -2 12 12 5 13 26 5 -17 -62 -45 -8 15 15 3 11 12 -7 -12 -58 -46 17 8 15 2 29 12 -1 -12 -53 -41 11 15 2 0 24 21 -3 -19 -39 -25 13 13 3 -2 16 18 10 -20 -49 -29 34 14 0 1 1 2 0 -36 -48 -17 34 24 14 -1 20 -11 -10 -8 -61 -9 10 20 -2 -20 15 -4 -17 19 -58 9 -26 16 -8 -20 10 -2 -25 51 -39 22 -25 -5 -31 0 9 0 -43 41 -22 14 7 -21 -24 14 -6 13 -40 16 -14 14 22 -26 -24 25 -14 18 -19 2 -12 6 16 -27 -21 27 -10 24 6 -22 1 6 9 -30 -17 24 -2 15 0 -24 -2 9 -14 -46 -20 5 7 27 2 -23 -10 -12 -9 -44 -1 1 7 20 16 -25 -4 -13 -23 -42 13 5 16 21 21 -18 -25 -22 -19 -43 12 -7 27 7 32 -17 -14 -27 -22 -23 18 -16 21 -12 10 -4 -3 -21 -18 15 9 -10 13 -22 -14 8 -1 -22 -12 52 -19 -7 -3 -14 -22 14 0 -5 7 37 -21 15 -21 -12 0 29 -11 -11 -9 5 -11 17 -21 -4 -15 17 -14 -10 -14 2 1 38 -17 -6 -26 24 -17 -19 -13 19 -13 26 -8 -1 -10 2 -51 -24 -2 12 -11 27 9 15 0 -3 -65 -35 -3 0 7 3 12 26 3 -13 -75 -32 12 19 10 0 6 23 3 -11 -63 -37 24 18 6 -1 12 8 1 1 -51 -25 24 11 8 -6 10 23 -1 -27 -51 -22 25 10 11 -10 -9 10 4 -47 -52 -12 31 26 11 -26 2 1 14 -50 -45 1 37 27 15 -36 4 -9 3 -9 -49 -5 20 16 5 -58 18 0 -23 36 -41 15 -10 18 -18 -45 16 12 -47 45 -37 7 -13 4 -15 -40 9 14 -50 30 -28 8 20 -22 -11 4 13 16 -35 12 -19 20 24 -19 -3 8 -1 19 -27 -18 -22 15 15 -30 -7 19 1 19 -12 -14 -7 -4 -1 -30 -13 8 -5 35 -13 -14 -3 -3 4 -26 -5 1 -3 24 -7 -21 1 -33 -7 -33 3 4 17 22 5 -5 -21 -41 -6 -53 11 -11 16 17 28 -15 -35 -44 -3 -67 34 0 10 5 29 -2 -23 -42 -19 -56 29 -5 24 -9 10 19 -5 -14 -13 -41 11 -2 27 -19 -1 21 10 -23 7 7 -16 -3 7 -12 -13 16 5 -21 2 25 -23 8 -13 -2 -4 29 -15 -7 1 17 3 21 -24 -3 -9 12 -4 0 -6 13 -10 21 -25 -1 -22 11 -32 -17 3 18 -15 33 -21 12 3 2 -50 -20 11 6 -11 17 -13 19 0 6 -55 -33 18 -8 19 10 -9 24 17 -11 -48 -25 17 -5 13 4 -9 12 14 -3 -40 -22 19 2 3 -5 -9 6 4 -13 -37 -20 22 19 12 1 -13 15 14 -31 -26 -5 28 8 17 -16 -16 0 18 -37 -22 -12 34 22 14 -39 -13 -8 10 -41 -17 9 34 21 14 -58 1 4 -2 1 -20 10 27 13 0 -73 14 -6 -37 36 -11 1 -9 4 -5 -65 29 12 -60 31 -25 13 -10 -6 4 -28 18 20 -65 26 -22 -2 9 -34 7 -15 13 26 -45 5 -22 2 29 -26 -2 16 8 30 -33 -22 -7 2 22 -15 3 14 0 31 -12 -24 -9 3 20 -20 -16 7 -5 29 -2 -31 -12 -12 9 -5 -2 5 -3 24 -15 -26 -3 -16 19 -14 -5 6 -12 9 7 -6 -27 -23 4 -14 25 -4 -12 7 24 -8 -32 -39 2 -42 24 6 -7 -4 30 2 -17 -27 -10 -51 31 2 0 -28 26 12 -1 -19 5 -36 23 4 2 -29 12 20 3 -11 2 -11 -3 9 -11 -8 -6 24 11 -12 13 8 -20 10 -15 -3 -3 22 -4 -12 11 20 -1 13 -23 -13 -16 29 -5 -12 9 3 0 11 -15 -3 -10 17 -16 4 2 11 -32 8 -29 15 -1 12 -15 -5 19 -17 -4 -2 -30 12 16 -11 -36 -21 28 -14 13 2 -13 12 10 -4 -30 -23 22 -12 4 -3 -20 17 15 -4 -22 -20 31 -11 10 -3 -25 -4 15 -17 -15 -18 24 15 6 -19 -30 8 7 -25 5 -9 25 6 17 -26 -22 -6 6 -44 11 3 35 20 15 -37 -15 1 -3 -31 12 -5 31 11 17 -51 14 -1 -13 12 4 9 18 12 -1 -66 19 0 -48 37 0 3 -3 -5 7 -46 30 -5 -59 45 -4 8 11 -17 14 -28 7 2 -54 15 -7 3 27 -24 9 2 18 17 -43 -9 -1 1 35 -21 4 15 -4 23 -13 -19 -9 -6 19 -23 -14 7 -3 26 -7 -28 -10 2 26 -2 -18 17 -6 12 -7 -29 -18 -5 12 1 1 29 -22 -1 4 -24 -15 -1 17 -9 7 12 -28 -11 9 -11 -24 -18 6 -13 20 16 -16 -20 27 -2 -20 -6 13 -14 30 8 -17 -30 23 -4 -8 -10 8 -27 30 -6 -12 -35 24 10 9 -8 -7 -17 17 0 -19 -30 6 22 26 -14 1 1 -8 14 -24 -16 -3 26 13 -21 4 16 -10 5 -28 -13 -2 14 -4 -3 14 8 6 15 -16 -1 -17 17 -4 11 7 12 -9 17 -32 0 -7 11 2 4 -6 7 -36 3 -38 9 17 1 -4 -10 14 -18 -25 -10 -31 9 15 -13 4 -19 13 -33 -3 1 -32 -4 5 -21 7 -19 18 -22 2 -16 -20 9 17 -11 6 -32 29 -15 10 -16 -21 5 14 -12 -3 -31 31 -9 12 -27 -18 7 18 -31 8 -20 12 3 20 -33 -7 8 19 -28 14 -6 18 9 23 -29 -6 7 -13 -10 9 0 12 7 12 -45 21 0 -24 8 23 5 0 -10 5 -53 15 -18 -43 40 11 3 14 -20 15 -36 25 -12 -68 32 1 -6 29 -26 2 0 14 3 -49 14 -5 -14 25 -17 4 0 1 4 -25 -23 9 -2 23 -26 -3 18 -9 22 -6 -32 -13 -7 29 -15 -9 22 -16 4 -8 -43 -15 3 16 -10 -9 16 -22 6 2 -34 -14 4 10 -8 -11 21 -20 -11 -4 -27 -3 7 3 0 -5 20 -30 -20 16 -20 -5 2 10 -7 5 22 -23 -16 23 -10 -18 3 -6 -1 6 14 -25 -33 21 -10 8 1 1 -13 17 12 -30 -40 11 8 25 -14 -7 -5 2 -4 -12 -35 -4 9 35 -4 -13 9 -17 3 -26 -22 -16 19 22 -20 3 18 -11 12 -31 -3 -16 24 -16 5 12 10 -9 9 -31 -7 -22 12 -2 10 0 11 -16 5 -18 -3 -4 2 11 23 -6 8 -32 0 -21 -8 10 -8 17 16 0 -9 -16 -7 -31 -7 10 -24 5 -5 9 -4 1 -8 -36 -10 12 -39 16 -15 30 -19 4 -12 -14 -7 8 -28 4 -19 20 -39 10 -8 -6 0 19 -16 11 -32 28 -30 4 -13 1 5 24 -16 -1 -43 8 -19 29 -30 -4 19 11 -19 3 -38 2 -18 26 -32 19 17 -6 0 11 -30 -1 -27 20 -33 17 0 -44 19 23 -13 6 -24 3 -29 29 -7 -63 37 19 -11 14 -32 7 2 10 -17 -62 24 13 -10 28 -14 4 -2 0 -5 -36 -3 14 -8 28 -12 -5 3 7 12 -24 -27 6 3 37 -12 -8 14 4 21 -4 -38 -8 -4 19 -7 -5 5 -13 5 -4 -40 -10 1 12 -8 -6 10 -24 -12 4 -43 1 10 13 -6 5 23 -21 -6 -2 -26 7 13 -7 6 -4 13 -18 -20 2 -26 -2 23 2 5 -6 4 -27 -30 21 -24 3 11 -17 -4 -6 7 -11 -32 15 -17 14 5 -13 -6 1 3 -20 -40 1 1 31 -14 -18 9 -3 -13 -22 -36 -3 12 47 -8 -21 6 -19 10 -21 -19 -18 20 33 -14 8 11 -13 12 -32 -14 -6 22 -2 1 -1 15 0 9 -17 4 -19 15 7 27 -10 7 -15 5 -25 -7 -17 15 6 25 -23 9 -26 -2 -22 -14 1 -18 20 27 -12 1 -31 -11 -30 -9 15 -36 17 1 -6 20 -14 -15 -19 -11 7 -35 22 -9 -3 9 -8 -22 -6 -1 9 -21 3 -16 19 -21 10 -14 11 9 7 -16 12 -36 17 -34 1 -22 12 5 17 -16 1 -50 0 -32 22 -26 24 5 10 3 16 -40 -9 -41 32 -27 19 13 -11 10 26 -35 5 -31 22 -17 27 5 -48 18 20 -38 9 -24 15 2 18 -11 -59 36 16 -37 25 -24 4 0 3 -18 -44 25 8 -22 30 -22 -4 14 -10 1 -20 -11 5 -3 33 0 -10 5 1 5 -10 -26 3 4 29 0 4 -9 -2 1 6 -39 8 17 8 8 -6 4 -4 -9 7 -42 0 17 -6 -6 11 13 -22 -5 -4 -24 8 19 -5 10 5 3 -14 -13 6 -10 11 24 -6 9 8 4 -9 -18 2 -17 10 22 -16 1 0 -8 -23 -31 12 -11 24 17 -31 6 1 -21 -1 -38 -2 -18 23 5 -22 11 -8 -9 -4 -38 1 0 49 -11 -26 3 -27 -11 -9 -25 -4 15 45 -23 -16 19 -19 3 -31 -8 -9 21 23 -6 7 4 -15 12 -28 -12 -1 24 -2 11 8 16 -11 19 -20 -10 -23 20 -9 21 3 12 -16 -6 -27 -18 -16 4 17 38 -18 13 -39 -10 -23 -17 -5 -27 21 32 -24 3 -30 -11 -21 -23 2 -37 21 29 -22 28 -23 -17 -14 -14 16 -32 21 17 -18 32 -18 -39 3 -19 19 -29 14 0 -20 9 -6 -36 4 -5 18 -15 11 -19 -12 -14 2 -27 18 -9 13 -9 7 -39 -20 -30 11 -46 19 0 9 -1 14 -38 -17 -34 30 -22 17 0 -5 9 24 -39 -7 -18 31 -20 8 -8 -18 11 15 -44 -1 -16 7 10 4 -11 -30 17 23 -38 11 -6 9 14 -8 -9 -27 18 13 -27 14 7 12 3 -5 2 -15 -4 14 -4 14 -9 3 -10 -5 4 4 -22 17 9 -2 6 13 -5 -7 -7 6 -32 9 19 -12 13 19 -18 -13 -9 8 -17 11 13 -15 9 12 -14 -10 -20 -3 -9 6 19 -27 1 15 -26 -2 -14 1 -10 2 11 -18 3 -5 -18 -7 -18 9 -23 10 8 -23 1 6 -29 -3 -16 6 -29 19 12 -26 6 0 -39 -4 -32 0 -6 32 -3 -32 2 -22 -22 -15 -33 -16 -11 36 -17 -21 9 -11 -17 -11 -33 -8 12 36 -15 0 19 -23 8 -19 -5 -13 16 20 -23 -2 20 -10 12 -30 -8 -10 11 -10 -6 1 13 0 5 -33 -10 -30 15 -2 21 -12 0 -10 2 -37 -16 -17 -4 0 29 -9 2 -36 -18 -25 -12 3 -23 11 42 -22 12 -26 -13 -19 -24 13 -32 22 29 -21 24 -23 -27 -14 -22 4 -22 23 11 -28 20 -14 -35 3 -32 3 -20 12 13 -41 21 -8 -30 2 -19 16 -9 20 6 -31 14 11 -30 9 -16 13 -2 21 -8 -47 4 18 -24 3 -27 15 1 17 -15 -32 7 28 -16 -4 -25 17 -1 8 -29 -33 0 28 -10 -8 -33 3 10 14 -19 -16 -4 27 0 -7 -18 -17 11 5 -15 -6 -2 26 -1 -18 -4 -13 1 13 -9 1 3 14 5 -9 -9 0 -21 4 -3 -3 -3 21 -8 -18 -4 -1 -17 8 10 -4 -5 29 -22 -15 -6 2 -4 15 23 -13 9 14 -21 -4 -15 -6 0 14 28 -8 1 17 -19 1 -22 -9 -6 13 16 -16 3 16 -27 2 -5 -10 -19 3 5 -25 14 6 -49 -8 -1 5 -27 15 15 -26 -3 -12 -44 2 -20 -7 -11 19 -3 -23 16 -1 -31 7 -11 -11 -13 39 -21 -20 16 -13 -28 -13 -22 -21 0 30 -31 -10 19 -24 -7 -18 -13 -10 10 28 -21 -5 19 -20 -1 -32 0 -3 28 11 -15 8 10 -9 11 -34 -5 -15 13 1 3 12 13 -3 13 -31 -3 -22 18 -5 12 -7 -8 -14 -2 -25 -20 -27 -1 7 34 -24 7 -16 -21 -37 -7 -4 4 18 24 -17 -5 -39 -15 -11 -15 3 -13 17 33 -36 3 -26 -28 7 -20 -3 -7 20 20 -39 7 -23 -23 11 -35 -4 1 20 11 -46 16 -23 -28 2 -32 7 1 17 4 -52 16 -7 -35 -2 -22 19 7 14 5 -37 19 11 -13 -9 -22 18 0 20 -12 -25 5 18 -4 -5 -40 10 -8 17 -10 -20 4 25 -3 -21 -37 12 -1 -4 -19 -11 1 32 -1 -22 -22 -5 -1 -9 -7 -15 -6 30 5 -20 -6 -4 -4 -9 3 -3 5 30 -13 -2 -2 3 -12 5 8 -1 -4 33 -21 -6 -10 -2 -8 -3 10 -7 3 22 -12 -6 -12 -1 -3 9 26 -4 12 18 -30 0 -11 -8 -3 13 12 -17 7 13 -35 -2 -18 -3 -10 3 4 -6 2 8 -30 -4 -21 -11 -27 5 6 -20 0 4 -50 2 -10 -9 -14 17 -2 -25 2 -2 -48 -3 -16 1 -13 26 -10 -28 16 -19 -35 2 -20 -2 -4 38 -28 -14 16 -15 -22 -17 -17 -21 11 37 -14 -3 8 -19 -7 -15 -1 -10 22 23 -15 9 12 -3 7 -21 -8 -1 27 -1 -17 10 8 1 10 -22 1 -6 25 -5 1 -2 8 -7 16 -18 -5 -10 10 10 22 2 -2 -11 -9 -33 -12 -22 18 10 18 -5 8 -18 -4 -37 -7 -7 10 14 16 -29 -8 -38 -19 -23 -12 4 19 7 30 -25 -9 -43 -11 -9 -22 2 19 17 10 -37 3 -27 -20 11 -26 3 4 9 10 -31 12 -22 -17 1 -24 12 14 20 7 -26 3 -22 -11 3 -21 23 5 17 4 -34 10 -10 -1 -5 -18 23 -17 9 -1 -28 18 -1 -12 -11 -27 22 -27 8 0 -20 16 12 7 3 -17 21 -29 5 1 -12 -1 25 -3 7 -18 6 -21 -2 -10 -16 2 17 -1 7 -7 9 -14 -13 0 -14 5 20 -5 -1 -19 16 -1 -7 13 0 11 21 -4 -6 -21 9 15 4 5 -2 13 3 -21 -1 -8 -12 19 10 6 6 12 6 -21 1 -26 -6 4 21 8 -2 4 8 -33 -5 -11 2 -3 20 16 -8 11 -1 -33 -5 -3 -5 -16 14 -1 4 6 -4 -49 1 -5 -2 -30 20 -1 -11 11 -18 -41 -3 -2 -12 -20 36 -26 -4 4 -27 -36 -7 3 -19 -3 30 -23 -2 13 -22 -22 -9 2 -13 11 28 -20 -8 10 -8 -5 -21 6 -8 26 5 -22 8 7 -13 9 -23 -10 -6 21 4 -13 7 9 4 13 -19 -7 -8 28 -2 -3 3 20 -7 8 -25 -9 -13 11 -1 8 5 1 -3 -6 -19 -14 -19 16 -1 18 -11 6 -16 -10 -39 -13 -16 26 12 15 -26 1 -29 6 -34 -19 -4 21 11 25 -18 -10 -38 7 -14 -28 -5 19 11 14 -24 -11 -37 5 -10 -21 7 16 -1 10 -24 3 -23 6 4 -20 13 4 9 15 -23 0 -22 -10 -5 -22 12 1 11 12 -15 3 -17 -1 3 -18 24 -3 6 2 -1 7 -18 -9 3 -7 23 -17 2 8 -10 7 -13 -10 24 -14 26 -31 0 3 -12 8 -8 -8 21 -14 24 -9 -14 -9 -9 17 0 -5 22 -19 16 6 -16 -1 -4 15 -7 0 12 -23 6 15 -2 3 -5 4 1 3 12 -19 12 12 6 10 1 -5 -2 -9 12 -11 0 24 -2 0 14 2 -12 -7 3 -21 -18 3 7 5 21 5 -10 -25 -3 -24 -20 -13 7 -2 14 8 -20 -34 8 -15 -18 -12 20 -4 14 12 -16 -43 -1 -4 -23 -6 26 -24 7 11 -23 -29 -1 17 -21 -6 19 -17 -1 15 -23 -18 -3 6 -16 12 17 -18 7 21 -15 -13 -20 1 -12 7 14 -13 -1 23 -3 7 -21 1 -17 16 8 -7 7 20 -12 2 -22 2 -16 19 -9 -16 4 11 -5 18 -31 -10 -3 26 -8 -15 14 22 -3 3 -28 6 -1 13 -15 10 10 17 -6 -1 -21 -12 -20 20 -6 24 -8 2 -12 -2 -39 -20 -17 12 -15 19 -8 8 -3 22 -44 -17 -20 15 -18 18 -13 -10 -15 24 -24 -8 1 8 -5 22 -11 -12 -31 17 -22 -7 5 -2 -17 11 -15 -2 -29 17 -7 -3 2 6 -4 12 -14 -6 -33 19 6 2 1 -3 -4 6 2 3 -22 -3 6 -6 20 -23 0 4 -2 8 -21 1 5 -15 13 -20 -1 8 -2 14 -31 -5 11 -7 23 -23 -9 1 -15 20 -27 3 18 -8 15 -24 -4 10 -8 2 -32 7 27 -14 19 -13 -8 -2 5 14 -21 0 13 -14 4 3 -14 -3 4 1 -18 11 22 -7 -4 24 -17 0 0 0 -27 1 5 -14 -16 27 -4 -1 5 -12 -31 -6 14 1 -19 19 1 -2 12 -7 -16 -13 14 6 -25 6 -2 -11 16 -4 -27 -26 15 13 -30 -11 6 -7 17 7 -24 -34 7 24 -17 -4 5 -29 17 -5 -21 -23 -12 23 -10 4 13 -27 -6 0 -9 -22 -10 11 -8 18 3 -12 7 15 -21 -19 -14 10 -16 15 3 -22 -1 16 -10 6 -20 5 -13 29 -6 -6 15 18 -1 11 -33 -3 -11 18 5 -21 13 15 -10 5 -21 -7 -12 21 6 -8 14 17 -8 18 -29 -5 -12 17 -14 -9 4 14 -8 17 -16 -11 -10 17 -9 6 6 11 6 11 -24 4 -19 13 -17 24 -4 9 -3 19 -30 -1 -26 13 -33 29 -11 -10 -8 26 -51 -1 -17 -2 -33 20 -13 -3 -14 31 -42 18 -27 -22 -30 23 -16 -4 -23 32 -19 6 -21 -13 -29 21 -15 -2 -23 11 -18 15 -18 -32 -19 15 -23 0 -24 11 -10 3 -12 -29 -20 19 -15 2 -41 18 -9 15 -8 -37 -18 18 -14 7 -28 20 2 0 -4 -41 -3 13 -23 8 -27 9 10 4 -7 -32 -18 8 -18 13 -37 21 12 1 -5 -37 -10 9 -23 8 -33 19 14 -5 -17 -24 -22 13 -12 0 -29 26 13 -5 -19 2 -21 4 -29 5 -30 8 12 3 -24 11 -6 -9 -21 -1 -33 5 8 13 -22 21 -19 -13 -18 -8 -25 -8 17 8 -37 18 -3 -15 3 -16 -24 -11 12 29 -27 19 -11 -21 -12 4 -11 -5 5 21 -23 9 -4 -16 9 10 -24 -21 -13 25 -21 8 -10 -16 -5 18 -15 -13 -16 19 -10 24 0 -16 -5 16 0 -1 -17 19 -16 25 4 -21 9 11 4 8 -30 -6 -1 28 4 -18 5 16 -3 10 -26 -6 1 32 -9 -14 5 9 5 6 -21 -4 -8 29 -9 -20 9 17 0 20 -17 -4 -15 32 -12 -17 2 17 -3 13 -27 0 -15 15 -2 -15 0 18 -9 13 -22 0 -6 16 -12 -6 -6 20 6 12 -39 7 -17 2 -20 2 -8 -4 -7 22 -36 11 -30 -6 -35 23 -26 3 -7 16 -40 17 -34 -5 -38 13 -20 -15 -12 23 -33 19 -35 -15 -25 16 -28 -14 -20 25 -31 5 -46 -26 -37 22 -34 -1 -10 15 -38 20 -33 -33 -26 33 -37 8 -21 26 -26 20 -32 -38 -30 23 -43 10 -15 19 -26 24 -34 -40 -20 21 -50 4 -16 14 -35 13 -34 -30 -19 28 -34 3 -31 15 -19 17 -33 -37 -21 10 -37 4 -27 20 -14 4 -38 -21 -20 6 -50 2 -23 20 -16 10 -41 -14 -18 -4 -39 9 -28 19 -2 30 -24 8 -22 -11 -38 1 -12 22 -14 27 -38 15 -15 -2 -33 -9 -17 20 -12 26 -23 22 -25 -5 -37 -12 -16 -1 -13 31 -22 23 -15 -10 -23 3 -8 -4 -12 38 -22 22 -7 -14 -7 0 2 -1 -28 37 -19 14 -15 -19 -3 8 3 8 -29 19 -16 14 -13 -6 4 23 2 5 -26 10 -3 16 1 -19 3 15 6 0 -19 -1 0 17 6 -17 3 18 2 4 -16 4 -12 16 -5 -5 -1 21 7 7 -21 -2 -13 16 -6 -19 4 8 -2 11 -16 0 1 24 -8 -11 6 12 -2 5 -18 -10 -12 29 2 -22 2 12 4 5 -18 -5 -11 27 -1 -7 2 19 3 12 -26 -7 -14 19 -4 -14 7 10 -2 8 -33 14 -5 23 -8 -15 3 1 5 2 -27 15 -20 17 -5 -2 -20 7 -8 11 -32 7 -17 6 -21 7 -28 8 -8 15 -23 7 -20 13 -9 -5 -21 4 -12 25 -36 5 -36 -5 -20 5 -37 9 2 29 -27 4 -39 -2 -13 10 -40 13 -8 21 -28 5 -33 7 -10 8 -36 14 -16 17 -41 7 -19 6 -13 5 -34 -3 -9 26 -37 13 -33 -6 -9 4 -41 3 -2 38 -23 13 -31 1 -18 -4 -36 -2 -2 31 -27 14 -36 15 -20 -7 -46 13 -2 32 -19 18 -19 8 -10 -13 -46 1 -6 38 -17 10 -29 29 -6 -7 -42 -6 2 30 -18 12 -15 28 -15 -11 -32 9 -9 21 -14 28 -18 28 -12 -12 -10 7 2 10 -32 18 -17 15 -12 -13 -1 17 4 3 -27 10 -7 14 0 -16 4 14 -2 2 -22 6 -8 28 -3 -9 0 8 -1 10 -28 7 1 28 -2 -6 11 17 1 5 -22 3 -15 21 -7 -10 0 16 3 3 -26 2 -6 25 -11 -19 10 11 -1 9 -18 2
# fc_1_bias
-4 15 -3 -8 5 10 -2 9 -18 -3


