-7
27
-5
-17
4
5
-3
7
-20
9
1
33
-6
-7
14
13
0
20
-27
-7
-6
23
3
-9
7
13
-3
17
-27
-4
1
22
-9
-8
6
16
2
11
-31
0
-14
25
-14
-9
6
4
8
11
-17
-2
-1
14
0
-14
-5
1
-3
5
-22
-11
-15
16
-10
-12
5
6
6
15
-19
-3
-10
10
-1
-9
-1
1
19
2
-32
-13
-12
14
-10
-17
-16
-2
26
16
-26
4
-14
18
2
-15
-7
-4
20
-2
-24
-4
-25
18
-6
-17
-11
5
24
5
-25
-8
-18
10
-8
-12
-23
12
22
1
-29
-3
-15
13
-7
-18
-29
3
29
11
-33
-14
-25
17
-11
-10
-26
-9
27
-7
-31
-7
-22
14
-13
-24
-8
-5
7
-3
-34
-5
-27
8
-9
-19
-10
8
22
3
-28
-10
-34
14
-12
-11
-8
-5
11
-1
-24
-13
-24
8
-13
-25
-3
-3
25
5
-33
-19
-22
3
-27
-23
2
5
27
2
-32
-3
-15
7
-22
-19
-10
-2
30
12
-24
-3
-21
4
-10
-18
-2
5
14
16
-25
-4
-4
14
-21
-13
-6
7
13
9
-19
-5
-11
17
-8
-5
4
0
10
6
-25
6
-13
25
-14
-6
-4
0
7
8
-26
-5
-13
25
3
-14
1
4
-1
20
-31
2
-7
18
1
-5
0
8
-3
19
-20
9
-3
29
-11
-15
2
4
-14
14
-31
-5
-7
25
-3
-21
6
13
-6
17
-23
5
-5
33
3
-16
2
6
2
18
-18
-3
-9
23
0
-13
-1
15
-1
19
-24
5
-18
21
-8
-5
10
13
1
1
-30
-7
-9
14
-2
-3
-2
3
0
-2
-28
4
-12
9
-5
-10
-5
13
14
1
-29
-7
-25
8
4
0
-20
-2
18
-5
-33
-4
-19
0
9
-14
-11
10
16
-4
-34
-5
-18
-3
19
1
-21
-4
19
-7
-31
-7
-29
-12
13
0
-48
-6
27
2
-34
-20
-23
-19
21
7
-45
-15
15
-5
-29
-21
-27
-12
11
20
-44
-5
24
-12
-29
-19
-32
-6
8
12
-46
-7
16
1
-32
-22
-32
-16
8
9
-38
-5
21
4
-18
-11
-32
-17
-2
17
-35
-16
24
-2
-25
-11
-34
-22
3
12
-21
-12
24
-6
-27
-14
-31
-20
-7
3
-17
-6
19
-4
-19
-12
-28
-25
-11
-1
-14
-10
22
-7
-27
-21
-35
-27
-18
-9
2
6
37
2
-24
-12
-25
-15
-23
-8
-7
-8
26
5
-16
-2
-24
6
-12
-17
-1
6
39
-1
-15
1
-24
-4
-16
-21
4
-7
35
1
-18
-15
-15
16
-15
-15
9
1
22
7
-23
-5
-15
10
-11
-18
6
2
8
5
-29
-2
-9
31
2
-6
8
16
-9
19
-16
4
-12
28
-13
-3
1
4
2
5
-21
0
-15
23
-11
-19
4
2
-8
18
-27
8
-1
20
-11
-10
14
15
-4
13
-18
8
-7
14
-2
-6
11
-2
-4
11
-20
0
-7
19
-5
8
1
9
9
13
-34
-9
-7
17
-2
2
4
-8
1
-3
-23
-16
-10
-4
11
5
-1
-9
12
-4
-19
-13
-3
0
12
4
-17
-21
11
-14
-32
-6
-8
-17
11
21
-26
-22
18
-2
-20
-7
-9
-12
17
16
-36
-17
3
-11
-13
-15
-19
-1
32
22
-33
-21
10
-11
-7
-28
-7
11
14
18
-46
-27
0
-17
-12
-29
-3
2
21
26
-47
-20
7
-11
5
-21
3
18
22
10
-40
-20
4
-15
3
-33
-1
0
18
4
-29
-10
16
-15
-7
-32
-6
4
17
9
-12
-2
11
-14
0
-31
-18
7
4
4
-21
-2
26
-18
-3
-29
-22
0
-3
-1
-7
-8
34
-16
-19
-35
-13
-1
-3
-1
-8
-9
36
-1
-14
-15
-24
7
-11
-4
11
-2
32
-10
-18
-25
-16
9
-15
-15
7
-15
43
-5
-25
-9
-17
16
-10
-31
3
10
51
5
-24
-7
-9
2
-33
-34
15
1
36
2
-13
-15
-25
12
-15
-29
7
10
31
7
-25
-11
-10
15
-11
-17
9
9
16
0
-19
-9
-4
24
-8
-18
15
20
-7
2
-18
-8
-6
25
-7
-8
15
4
-9
19
-33
5
-1
21
-1
4
16
11
-10
9
-29
-4
-9
16
-12
-4
0
3
-2
14
-28
-6
-4
25
-7
5
7
1
-1
12
-31
-1
-11
5
13
12
11
-16
-10
-9
-20
-12
-8
9
13
27
5
-16
4
-13
-23
-27
-15
-5
26
20
-4
-22
5
-10
-26
-26
-14
-21
28
14
0
-19
-2
-13
-26
-21
-1
-15
23
14
3
-18
2
-22
-14
-35
-6
-15
29
17
-12
-2
-7
-18
-7
-20
-3
4
23
6
-11
-9
10
-21
-1
-19
9
14
34
1
-18
-14
-19
-38
14
-21
13
5
25
5
-15
-17
-5
-24
8
-27
18
2
24
5
-4
-9
-6
-29
14
-40
3
5
31
6
8
-8
-13
-32
13
-44
3
-3
25
-6
0
4
4
-25
15
-56
12
-12
19
5
14
-4
13
-31
7
-54
5
-7
13
3
17
1
14
-30
13
-46
10
-4
8
-1
9
17
33
-19
-12
-24
-1
16
-8
-17
14
6
39
-17
-9
-24
-5
28
-11
-31
21
8
37
-25
-8
-19
-6
19
-11
-31
27
13
35
-10
-7
-28
-12
20
-27
-46
21
17
23
-10
-14
-22
-23
14
-34
-35
25
14
19
-9
-16
-29
-18
-6
-12
-33
23
13
0
9
-20
-14
-12
11
-12
-15
11
24
-1
9
-12
-16
-12
28
-1
-5
4
5
-3
20
-27
4
-15
27
-8
-3
0
11
-10
15
-25
-6
-4
21
-11
4
15
-8
-5
14
-35
-9
-8
6
11
14
17
-5
-18
1
-21
-10
-20
-5
5
15
4
-24
-11
8
-20
-30
-11
0
17
28
14
-25
-7
4
-14
-33
-13
-22
17
24
17
-11
2
2
-11
-24
-3
-34
25
18
7
0
3
7
-17
-37
0
-19
29
11
1
1
-5
0
-8
-23
-13
-27
10
10
-11
-1
-13
-4
4
-21
-5
-21
17
12
-11
5
-13
-6
-1
-21
13
-11
13
15
-7
1
-20
-19
2
2
17
-8
11
8
-16
4
-16
-16
5
9
5
-7
22
12
-27
0
-19
-28
6
3
8
-10
19
7
-25
-7
-5
-21
8
2
21
-12
10
10
-11
-2
-14
-29
22
-3
27
-21
8
-7
-15
3
4
-22
17
6
22
-13
7
4
4
9
5
-28
5
-13
12
5
-2
1
-10
3
4
-28
0
-18
3
14
-6
-9
11
6
6
-21
5
-15
5
10
3
-17
9
4
9
-14
3
-16
11
21
-16
-25
10
5
0
-10
1
-31
-9
-1
-20
-25
29
28
8
-24
-3
-32
-15
-3
-36
-31
40
21
-6
-12
1
-29
-42
-3
-19
-36
13
41
-4
-15
-10
-29
-32
-5
-17
-16
10
21
-9
-9
-13
-23
-3
31
-13
-2
0
16
-3
21
-28
3
-13
12
-16
1
9
11
-16
22
-23
-12
-18
8
7
23
8
-18
-6
20
-31
-19
-3
7
4
31
6
-14
-25
17
-20
-20
-11
3
22
31
-1
-21
-12
5
-24
-29
-3
-14
17
25
4
-26
-15
23
-9
-36
-5
-32
13
18
-5
-15
-16
25
0
-36
-14
-40
10
10
0
8
-10
26
-2
-31
-20
-29
22
15
-15
5
-14
27
7
-26
-2
-34
11
20
-10
13
-13
25
-2
-6
-9
-19
0
8
-19
5
-25
19
-11
5
-1
-9
6
12
-22
2
-17
8
-1
13
4
-21
5
8
-41
-2
-18
-7
-9
20
0
-25
12
16
-36
-12
-24
-14
6
32
13
-24
13
11
-40
-3
-15
-5
2
39
20
-27
5
-3
-30
-7
-17
-12
6
34
18
-30
-1
-1
-37
-4
-14
6
2
20
22
-20
-7
5
-22
7
-7
-4
-5
26
22
-8
7
2
-12
-1
-9
-3
5
3
8
5
-3
-11
-9
11
-6
-7
0
1
17
2
-9
0
-1
10
-19
4
0
-17
7
-7
-3
-3
4
18
-6
-11
11
-15
8
-5
-13
-24
21
21
-7
-9
4
-30
-5
-17
-26
-42
27
32
-28
-18
18
-39
-35
-20
-34
-31
16
37
-17
-25
13
-30
-28
2
-12
-12
10
32
-8
-13
-9
-29
-15
14
-4
-11
3
3
-14
13
-23
-4
-7
18
-4
4
-8
-6
-18
29
-28
-19
-5
5
12
25
-2
-8
-7
24
-19
-26
-25
12
10
19
12
-23
-18
16
-12
-36
-20
-10
11
29
-1
-30
-18
12
-18
-29
-14
-20
6
30
8
-12
-15
18
1
-42
-14
-36
11
8
-6
-7
-15
15
4
-29
-6
-37
13
10
-7
-6
-24
21
-3
-27
-9
-37
15
7
-21
10
-6
12
7
-13
-4
-30
14
14
-9
1
-17
16
1
-7
-3
-17
2
3
-25
1
-14
22
2
-3
3
-19
15
1
-19
0
-26
10
0
7
1
-22
0
-2
-33
-1
-12
11
0
24
15
-10
4
9
-34
-10
-17
6
-12
37
19
-6
-1
7
-49
-19
-19
3
-4
37
11
-14
-1
14
-53
-12
-19
-1
-4
36
25
-20
-7
11
-33
-7
-31
17
5
28
20
-10
2
9
-16
-6
-35
15
-3
6
17
-19
-6
7
-9
10
-33
8
-2
1
11
-7
4
14
-17
10
-31
2
11
-4
8
-11
-5
-2
-12
10
-26
14
7
-10
14
-15
-8
-11
-6
15
-35
0
6
-22
15
-24
-18
-21
19
22
-34
-11
11
-33
-4
-34
-41
-46
23
52
-43
-23
24
-33
-29
-32
-34
-49
10
59
-34
-25
19
-40
-36
-15
-17
-32
5
58
-29
-13
-11
-26
-13
18
-5
-4
0
10
-14
11
-32
-15
-14
27
-1
6
-2
2
-21
29
-20
-21
-23
10
3
26
-15
-11
-23
21
-21
-24
-10
11
18
29
-10
-31
-30
29
-5
-24
-21
-1
12
29
-10
-38
-18
18
4
-24
-6
-12
0
22
-10
-28
-9
23
-7
-17
-14
-26
7
10
-5
-14
-19
17
12
-17
-5
-29
14
3
-2
6
-7
12
18
-11
-7
-40
3
-2
-2
15
-15
4
16
4
-1
-36
7
-19
-14
21
-10
20
15
0
-4
-28
15
-25
-4
9
-20
8
8
4
-4
-24
10
-21
-15
7
-7
11
1
6
13
0
-3
-20
-30
1
-19
15
-7
15
2
11
10
-1
-38
-5
-9
25
-3
20
11
9
14
15
-37
-27
-16
21
-23
11
21
9
9
15
-41
-29
-40
18
-23
2
24
-4
-1
15
-24
-21
-39
33
-12
-6
24
-1
6
5
-9
-9
-52
32
-15
-1
13
-18
-6
13
-4
-5
-43
27
-2
-14
2
-18
-7
9
-7
5
-41
19
10
-16
6
-23
3
16
-7
6
-39
11
12
-13
4
-28
-8
3
-13
16
-29
1
9
-8
1
-35
-9
-17
-8
37
-26
-8
7
-18
16
-38
-30
-38
-5
50
-29
-13
12
-41
-18
-27
-40
-35
-20
67
-42
-19
1
-32
-48
-1
-13
-16
-2
57
-30
-16
-6
-21
-9
29
-8
-17
3
11
-7
12
-27
2
-16
9
-7
-5
1
1
-6
19
-20
-16
-13
20
6
4
-16
-11
-16
29
-22
-16
-21
8
11
21
-14
-18
-18
23
-5
-5
-16
-4
10
21
-11
-23
-8
12
11
-19
-12
-19
-10
2
-16
-1
-21
8
10
2
-11
-21
-1
-13
-10
-4
-3
0
24
5
-13
-32
-9
-18
1
9
-11
13
16
9
0
-32
-20
-31
-2
21
-5
14
18
11
-3
-31
-15
-41
12
16
0
-2
16
13
5
-21
-3
-44
8
27
1
11
23
-1
3
-6
-15
-35
-12
24
-6
9
18
3
1
-3
-13
-22
-21
5
-15
16
0
2
1
29
-24
4
-29
-5
-8
34
-11
-1
4
38
-4
32
-37
-13
-15
33
-20
-16
0
26
5
27
-25
-36
-34
39
-36
-8
5
6
-3
13
-4
-26
-50
39
-12
-22
17
-6
7
8
8
-16
-55
32
1
-12
19
-8
3
14
-2
-17
-37
12
6
-9
16
-28
-3
15
-7
0
-34
21
10
6
11
-30
3
14
-3
-4
-34
6
15
-6
6
-44
-12
-4
-19
18
-22
8
13
-7
12
-41
-18
-20
-13
22
-31
-9
16
-22
20
-35
-27
-36
-30
42
-17
-24
5
-28
-9
-12
-32
-44
-33
77
-32
-24
-15
-27
-45
-2
-8
-10
-19
78
-22
-3
-24
-17
-6
24
-15
-4
9
4
-2
18
-17
-9
-21
25
0
-3
-11
4
-8
27
-31
-17
-24
23
-16
-6
-10
2
-19
31
-19
-9
-8
6
-8
-6
-11
-1
-6
26
-6
-1
-4
-7
-31
-9
-8
-1
2
13
13
0
0
-10
-22
-25
-2
14
2
12
12
14
6
-15
-43
-29
-9
3
-7
5
15
30
-4
-22
-46
-45
2
8
2
-2
32
20
-1
-31
-43
-44
7
14
6
8
12
8
2
-31
-39
-41
10
21
12
5
13
15
-7
-38
-47
-40
13
23
5
-2
9
22
-3
-14
-46
-35
13
18
2
6
11
5
-4
5
-50
-7
-8
14
0
11
11
-5
-3
27
-41
6
-28
4
-10
26
-5
-15
-14
40
-19
14
-32
1
-23
26
-14
-8
-21
36
-19
20
-12
-22
-35
30
-20
-3
-17
5
-2
20
15
-35
-36
36
-12
0
-7
-5
0
18
17
-34
-40
27
2
20
3
-18
-4
11
5
-31
-22
23
8
17
10
-28
-8
14
-2
-29
-23
9
5
14
14
-34
3
2
-22
-22
-6
12
17
17
18
-36
-7
-8
-7
-21
5
8
27
2
13
-30
-22
-20
-17
-16
-6
-4
16
-4
26
-11
-30
-39
-40
20
-2
-20
6
-14
4
-6
-9
-34
-30
48
-16
-26
-8
-26
-36
7
-7
-6
-16
58
-23
-8
-13
-24
-15
23
1
-13
-4
2
-4
26
-23
0
-5
14
-20
-17
-5
5
-15
20
-13
-1
-18
9
-22
-4
0
8
-24
24
-27
-3
-4
19
-33
-14
-7
11
-12
15
3
-1
6
9
-46
-23
-2
7
2
21
-3
11
-3
9
-46
-39
6
15
9
13
18
18
-3
-10
-67
-42
0
16
16
-5
12
20
3
-8
-64
-41
12
21
19
-6
21
27
2
-20
-61
-29
25
19
4
-4
19
10
4
-27
-48
-27
29
8
15
-6
19
14
8
-29
-46
-19
28
26
6
-11
11
18
9
-19
-56
-9
39
29
4
-18
8
5
-9
-6
-69
3
6
22
0
-29
21
-15
-25
14
-60
13
-13
5
-8
-9
22
4
-53
48
-39
25
-16
-7
-30
-9
-2
9
-40
41
-24
10
5
-18
-31
17
-12
9
-27
1
-11
21
8
-26
-20
14
-16
16
-18
-21
-9
11
21
-22
-21
23
1
24
-2
-31
-7
9
-5
-34
-9
17
-1
35
10
-30
-3
0
-3
-34
-10
3
9
36
10
-14
6
-6
-7
-49
7
-1
12
36
8
-11
-9
-23
-10
-59
15
-9
30
22
29
-9
-22
-38
-25
-50
31
-13
26
-1
33
-2
-14
-27
-22
-21
22
-12
22
-7
21
3
-20
-18
-10
12
9
-20
3
-22
-12
9
3
-6
-13
21
-12
0
-2
-19
-12
27
2
-4
6
13
-3
21
-16
-2
-22
21
-1
-7
7
9
-1
17
-32
2
-5
7
-25
-6
-1
4
-23
20
-28
18
1
13
-54
-6
-3
10
-1
15
-13
23
-9
-1
-54
-19
11
8
-4
5
-4
18
0
-3
-70
-25
2
8
10
-5
3
19
20
-9
-71
-37
14
13
19
-10
1
11
7
-21
-68
-20
29
9
15
-10
2
20
5
-42
-53
-12
35
19
8
-7
-10
1
6
-43
-36
-16
41
15
10
-22
-5
14
9
-48
-41
-8
45
14
1
-32
-7
3
-4
-8
-41
-3
52
29
16
-56
3
-8
-13
-2
-46
4
19
27
-1
-68
21
-8
-39
20
-32
13
-1
-2
-5
-48
22
25
-56
50
-34
15
-2
-12
-13
-20
19
38
-57
36
-20
6
12
-28
-15
-3
5
21
-43
-7
-22
4
16
-24
6
14
8
27
-27
-24
-13
1
23
-21
-8
16
2
28
-6
-20
-5
-7
11
-19
-7
11
2
41
-12
-25
-4
-19
1
-30
3
-2
10
34
0
-18
-9
-26
-8
-39
15
-6
20
22
10
-15
-22
-40
-1
-49
35
2
8
19
29
-4
-21
-36
-4
-52
26
-11
20
-13
27
1
-30
-24
-16
-52
38
-20
18
-13
19
-2
-7
-29
-13
-32
9
-6
1
-28
-13
12
15
-7
9
3
-3
-3
-10
-14
-15
24
-2
-9
4
16
-11
22
-22
-3
-11
20
-4
-17
10
13
-12
17
-26
3
-15
23
-20
-3
14
2
-9
16
-20
6
3
18
-27
-13
12
3
-7
6
-30
5
7
12
-39
-34
19
2
-9
6
-18
26
11
-7
-45
-30
17
1
6
-14
-14
23
9
2
-38
-21
27
-1
24
-2
-23
15
14
-17
-35
-18
18
5
8
-7
-25
1
13
-32
-14
-25
30
9
8
-16
-12
12
11
-40
-9
-16
27
16
12
-30
-13
2
15
-36
-13
-7
36
23
21
-53
-2
-9
6
-20
-11
-3
29
14
13
-68
9
1
-26
1
-8
7
9
7
11
-71
19
5
-60
30
-17
7
8
-6
-5
-59
27
24
-61
50
-17
7
2
-20
-12
-34
14
16
-57
23
-18
7
13
-34
6
-10
3
14
-37
-17
-18
-3
19
-25
5
8
-2
16
-15
-32
-7
8
33
-26
-7
8
0
37
-11
-27
-3
0
18
0
0
13
-7
22
-8
-23
-1
-7
11
-13
-6
19
-10
11
10
-19
-15
-24
14
-14
19
3
2
3
22
-9
-22
-18
9
-22
19
2
3
-5
16
-4
-20
-28
7
-29
39
-2
-11
-18
33
-8
-29
-32
-1
-32
24
2
4
-28
27
5
5
-16
2
-19
16
-2
-18
-36
-2
6
10
-23
-1
-7
1
11
-10
-5
0
27
2
-3
16
12
2
14
-32
-1
-15
23
-13
-9
14
3
-1
19
-24
0
11
16
-7
1
1
0
-25
2
-32
0
6
-4
-3
-11
7
-13
-10
4
-28
-4
3
-8
-14
-8
13
-11
-14
1
-35
12
24
-9
-26
-37
25
-22
3
-4
-39
3
12
-18
-11
-30
17
-4
4
-10
-36
1
10
-24
-6
-34
33
-3
9
-22
-32
-4
14
-46
-12
-18
19
13
2
-24
-24
3
12
-26
3
-10
29
20
11
-40
-18
-5
6
-20
7
-6
25
24
12
-43
-6
-14
-16
-16
11
7
16
3
18
-64
11
-11
-39
-3
12
9
3
-4
8
-47
26
-9
-63
36
9
13
1
-18
-18
-38
15
4
-70
39
-5
-4
11
-33
1
-21
3
3
-56
14
-16
-9
20
-23
13
-2
7
15
-24
-39
1
4
32
-26
6
6
-2
13
-10
-42
-12
9
24
-14
-2
22
-9
27
-3
-44
-9
1
16
1
-1
26
-25
10
-7
-31
-6
10
15
-4
6
25
-25
-7
4
-8
-25
-1
14
-8
7
21
-26
-16
20
-3
-17
2
11
-11
21
20
-25
-16
17
-6
-29
-6
-4
-14
18
20
-25
-18
18
-5
-4
-20
5
-13
14
8
-16
-22
23
10
14
-16
-1
-10
2
0
-16
-36
-8
9
34
-12
4
-7
-2
10
-20
-15
-9
19
-3
0
10
13
-2
12
-16
1
-12
16
6
0
-3
21
-5
4
-25
-14
1
8
14
13
-4
0
-22
15
-28
-4
16
5
19
5
16
-3
-22
-5
-33
-11
16
-16
18
3
8
-4
-11
-4
-37
-4
28
-23
4
-11
22
-24
-1
-11
-27
11
14
-21
7
-34
29
-33
18
2
-21
0
10
-28
-1
-36
26
-24
12
-17
-13
9
20
-15
2
-31
13
-17
5
-20
-10
12
15
-26
1
-17
13
-8
29
-37
-15
0
9
-19
9
-12
12
-8
19
-45
9
4
-25
-13
11
2
18
-7
24
-33
11
-1
-59
16
14
5
14
-16
-1
-33
24
0
-59
34
18
-1
22
-19
-7
-20
12
-3
-68
38
3
-12
23
-35
0
-16
10
-3
-38
0
6
-4
36
-29
-4
6
5
3
-31
-43
-7
-8
41
-9
1
15
-1
14
-12
-45
7
-2
28
-8
-6
19
-11
23
9
-48
2
8
20
4
-7
25
-23
1
9
-34
-10
3
9
-4
-6
28
-24
-22
1
-17
-2
6
0
-5
8
18
-29
-23
14
-7
-13
11
9
-8
6
21
-25
-23
11
-1
4
2
-4
-2
4
12
-12
-26
15
1
13
-8
-17
-11
12
5
-21
-36
10
0
27
-14
-5
0
1
4
-18
-31
-24
5
50
-19
-14
7
-15
11
-21
-14
-18
32
-13
-6
12
6
-5
16
-32
-7
-23
17
5
20
-11
5
-12
-2
-30
5
-6
2
14
16
6
12
-19
1
-30
-16
0
4
7
23
-9
9
-20
-4
-43
-4
0
-22
19
12
-1
3
-17
-17
-30
0
15
-38
16
-4
11
-10
-12
-16
-28
4
8
-40
4
-24
9
-26
8
-16
-6
-6
13
-35
4
-25
28
-40
9
-9
11
-5
20
-10
-4
-50
21
-36
27
-33
19
3
12
-12
3
-37
7
-39
25
-28
16
-4
0
-1
6
-45
-6
-28
25
-40
22
13
-25
-4
19
-36
12
-33
25
-9
16
2
-68
21
13
-16
18
-26
-3
-9
19
-5
-65
49
11
-20
18
-38
1
1
9
-6
-44
32
14
-17
23
-23
1
0
-2
-22
-40
-12
10
-16
26
-13
-3
15
-9
9
-5
-46
0
-6
27
-9
-14
7
2
7
12
-43
-3
8
13
2
-4
22
-10
12
11
-42
-9
21
6
9
-8
25
-26
-3
5
-26
-7
21
4
-1
8
18
-21
-29
8
-19
1
17
-9
4
17
-2
-20
-16
8
-16
10
16
-11
7
0
3
-7
-35
11
3
16
16
-14
-11
8
-9
-17
-37
14
-5
26
-3
-18
-1
-15
-10
-5
-36
0
2
34
-8
-22
1
-10
-10
-9
-21
-23
3
57
-16
-6
10
-19
0
-29
-13
-17
15
-6
4
2
12
1
13
-32
4
-23
9
3
12
-8
6
-5
2
-36
-9
5
9
9
27
1
4
-25
1
-39
-25
2
-2
13
26
-15
17
-35
-17
-36
-16
4
-29
13
17
-14
27
-28
-17
-23
-4
12
-33
30
5
-18
17
-19
-15
-9
-12
10
-43
21
-12
4
17
-13
-27
6
-16
20
-16
13
-32
2
-13
4
-30
18
1
19
-6
17
-47
-2
-34
16
-37
24
8
14
-10
4
-50
-6
-38
19
-36
17
4
4
8
14
-53
-12
-38
20
-26
22
5
-33
4
27
-50
3
-34
16
-7
24
3
-43
20
26
-45
11
-23
7
3
23
-6
-52
40
10
-40
23
-15
-1
-3
1
-16
-45
10
11
-30
31
-20
7
-2
-19
-12
-21
-18
1
-4
23
-1
-7
1
-13
2
-5
-51
13
15
5
-5
-10
-7
1
9
10
-34
0
18
-2
11
5
-6
-15
-11
0
-20
4
17
-6
6
7
-8
-21
-19
6
-12
8
18
-26
2
11
-14
-11
-19
7
-15
18
16
-14
8
2
-17
0
-26
3
-8
15
15
-21
-5
3
-17
-13
-18
10
-9
38
9
-36
-2
-6
-19
-9
-37
-1
-11
40
-12
-18
11
-2
-16
-8
-34
-8
6
42
-38
-27
3
-26
-5
-21
-16
-22
10
54
-18
-15
-7
-22
8
-42
-18
-8
26
-10
-6
-1
3
-12
4
-19
3
-16
19
-8
20
0
7
-7
6
-34
-14
1
-5
7
28
-17
9
-13
8
-27
-19
-4
-16
4
38
-18
23
-24
-10
-27
-12
-10
-29
23
33
-40
15
-31
-24
-12
-14
7
-33
25
12
-24
23
-26
-30
0
-18
10
-30
24
11
-23
22
-21
-33
7
-18
13
-13
7
0
-23
5
-4
-30
14
-15
14
2
11
-16
-17
-4
8
-42
11
-14
13
5
7
-45
-26
-13
20
-36
11
-12
16
0
20
-44
-22
-14
24
-10
11
-12
-9
0
15
-35
-10
-14
28
-11
11
-20
-24
30
20
-28
-4
-12
15
-2
-6
-16
-38
24
12
-33
9
-12
8
1
-28
-13
-16
0
11
-10
13
0
9
4
-20
8
-8
-24
3
0
4
6
8
-10
-11
-6
0
-24
15
16
-5
10
18
-5
-7
-11
5
-27
-3
15
-17
9
13
-22
-16
-4
-3
-6
3
30
-16
9
21
-27
-10
-19
-9
3
11
13
-31
6
10
-30
-5
-18
-8
-7
15
12
-26
8
6
-33
7
-8
1
-6
19
22
-37
6
5
-25
-3
-17
2
-4
27
3
-36
6
1
-37
-6
-30
-6
-14
46
-11
-21
9
-25
-30
-2
-28
-16
-3
38
-32
-10
2
-30
-12
-20
-17
-10
18
26
-14
-6
-4
-31
-2
-32
-13
-10
22
1
-6
6
14
-12
0
-32
-5
-9
5
7
15
-6
11
-8
11
-34
-12
-4
8
4
29
-15
-3
-13
-6
-23
-8
-18
-12
7
33
-20
-2
-38
-13
-22
-18
2
-8
13
30
-37
8
-44
-24
-10
-30
-5
-26
25
25
-37
16
-34
-42
5
-29
0
-8
15
6
-45
26
-26
-49
5
-33
9
-5
17
5
-40
25
-11
-41
1
-42
11
-11
18
-3
-52
14
-1
-28
-3
-36
25
-6
21
-12
-38
6
17
-27
-2
-25
26
3
5
-20
-33
-5
36
-5
-6
-36
4
6
18
-22
-32
14
36
2
-12
-27
2
3
14
-26
-19
-1
22
14
-14
-24
-2
11
8
-13
-14
5
31
3
-19
-14
-6
-7
8
3
8
1
23
4
-13
4
-4
-10
3
13
-7
-8
12
-14
-7
-7
4
-7
4
15
-7
8
26
-24
-13
-16
0
-8
14
24
-13
5
31
-34
-6
-13
0
3
13
13
-20
7
20
-34
-9
-23
-20
-5
9
10
-20
16
14
-28
10
-10
-12
-19
21
13
-18
-3
4
-42
1
-14
-9
-21
24
6
-30
13
-4
-50
0
-15
-3
-18
41
-1
-26
1
-4
-34
1
-30
-5
-8
32
-17
-29
18
-26
-33
-7
-20
-6
7
42
-22
-24
2
-17
-6
-30
-12
-21
20
20
-18
6
5
-17
4
-33
-3
-1
17
-5
-9
4
5
-10
2
-34
-10
-14
21
-2
14
5
3
-13
6
-29
-6
-8
12
2
25
3
5
-21
-7
-40
-7
-4
12
12
31
-8
3
-19
-18
-16
-14
-13
2
20
24
-28
-3
-36
-16
0
-29
11
-2
20
8
-40
8
-29
-36
-5
-31
4
-8
20
18
-54
7
-19
-40
-3
-29
10
2
13
14
-41
18
-14
-34
-2
-32
17
-8
11
6
-38
15
-2
-18
-12
-26
11
0
16
-5
-44
3
10
-10
-9
-36
18
-9
10
2
-26
17
19
-6
-3
-27
20
-18
0
-10
-18
3
38
-12
-19
-32
14
2
-1
-2
-20
3
35
-1
-21
-27
3
-4
-7
-9
-17
4
37
11
-11
-16
-5
4
-11
-2
-6
1
24
-8
-11
0
-1
1
-10
15
-10
-3
19
-22
-8
-15
-9
9
9
15
-5
-1
20
-19
-7
-19
-4
0
12
13
-11
15
18
-22
2
-20
-9
-3
13
24
-12
7
12
-32
-2
-13
-15
-16
29
11
-9
12
10
-35
2
-3
-7
-22
13
11
-6
0
4
-46
7
-15
-13
-20
29
-7
-24
5
-15
-40
-1
-10
-3
-10
39
-22
-15
17
-21
-24
4
-15
-17
-7
27
-29
-24
9
-12
-25
-6
-10
-10
-2
20
-25
-3
0
-14
6
-38
-5
-20
21
13
-20
5
15
-6
-1
-26
4
-12
26
2
-1
6
9
-12
15
-33
-9
-2
22
-6
-7
-5
-1
-6
-4
-19
1
-15
12
2
12
-2
8
-1
-7
-28
-14
-21
22
3
19
-7
-8
-18
-11
-26
-27
-9
12
2
16
-17
-7
-35
-11
-8
-23
1
16
15
11
-34
-5
-31
-8
-10
-22
15
13
14
17
-27
1
-35
-15
7
-34
17
0
15
14
-35
7
-27
-13
0
-30
8
-13
4
-3
-35
10
-4
-13
4
-28
16
-5
6
2
-30
15
-4
-18
0
-18
20
-26
3
-5
-15
5
3
-16
2
-28
22
-33
-3
-6
-11
8
9
1
10
-29
15
-14
0
-1
-21
18
4
-4
10
-9
13
-15
-8
9
-5
15
5
7
17
-4
14
11
-5
-4
-9
-1
15
-14
16
-18
4
9
-5
2
-4
10
12
-6
4
-25
4
22
6
2
-4
3
-4
-28
-4
-25
-11
16
11
17
0
9
3
-20
-3
-26
-9
18
15
6
9
11
-11
-23
0
-10
-4
0
23
19
5
10
-6
-33
-4
-17
-20
-8
20
7
3
2
-5
-37
3
4
-9
-12
25
-10
0
13
-21
-45
-2
-2
-14
3
40
-28
0
16
-24
-26
-6
-7
-10
6
33
-26
-8
9
-18
-10
-22
-1
-13
3
28
-20
-7
1
-10
2
-31
9
-15
13
17
-7
5
2
-2
5
-19
4
-2
19
-2
-11
14
8
-4
8
-33
6
1
16
-12
4
-2
12
-14
10
-14
1
-7
21
-4
14
11
12
-3
14
-35
-15
-9
26
-15
17
3
0
-3
4
-39
-10
-19
15
1
25
3
-7
-11
5
-30
-15
-10
17
-7
21
-22
-13
-31
8
-5
-16
0
10
-15
15
-15
-8
-38
5
-5
-10
17
11
1
6
-19
-8
-40
1
8
-17
5
-1
6
2
-13
10
-26
-8
1
-7
28
3
1
2
-15
6
-24
-1
-1
-19
23
0
3
-3
-21
14
-20
-6
11
-20
19
-27
-8
-7
-11
13
-17
-7
17
-18
31
-25
-8
-3
-12
14
-13
3
25
-21
27
-14
-21
-2
-7
-1
-11
-1
32
-18
11
2
-13
0
-8
5
-13
-6
18
-27
7
19
-7
4
9
-3
-18
-6
15
-21
4
38
-11
-3
2
8
-6
-14
1
-17
-1
30
2
2
6
1
-26
-11
2
-19
-13
18
9
-3
15
6
-15
-29
7
-10
-11
-9
17
2
24
11
-18
-41
13
-3
-21
-5
24
-17
18
4
-24
-34
-5
14
-18
-14
17
-23
9
17
-17
-36
-2
5
-8
3
19
-24
-10
16
-27
-19
-18
17
-4
14
19
-17
0
5
-13
-8
-22
14
-14
26
6
-22
-1
2
-8
12
-29
-2
-5
29
3
-11
10
4
-3
7
-30
-3
0
32
-13
-19
3
12
0
14
-31
5
-11
15
-16
-7
12
4
-3
5
-30
-10
-1
17
-21
-3
3
22
-13
17
-31
-6
-20
15
-28
21
0
17
-9
13
-41
2
-10
19
-26
20
-5
3
-6
23
-41
-14
-9
7
-25
17
-10
-9
-7
19
-36
3
-16
15
-31
16
-18
-11
-31
14
-13
4
-17
-8
-14
16
-11
-3
-27
6
-16
7
2
-2
-15
19
-10
9
-25
10
4
2
-8
-2
-7
12
-13
17
-22
3
4
0
6
-21
-17
10
-4
13
-26
8
2
-6
11
-27
-10
12
-7
12
-32
11
15
-4
15
-27
-8
7
-4
12
-22
-2
15
-19
13
-16
-15
0
-17
12
-29
10
26
-23
0
-10
-18
9
-9
8
-24
-2
15
-21
3
21
-17
3
3
11
-38
7
14
-17
-3
20
-7
3
9
2
-28
6
28
-10
-15
27
-5
-9
12
-6
-23
-10
12
6
-21
14
-1
4
9
-5
-37
-15
23
-4
-37
8
-3
-1
10
-4
-22
-19
9
7
-33
-6
5
-28
13
11
-21
-34
6
29
-21
-2
12
-15
8
-3
-19
-21
0
17
-9
12
10
-17
7
4
-12
-15
-9
14
-12
11
0
-18
-4
15
-8
-14
-22
20
-14
15
3
-12
3
9
-10
6
-22
-2
-1
23
-7
-3
11
17
-5
8
-17
-5
-15
17
-6
-16
15
7
-10
9
-26
5
-13
27
2
-15
13
7
-5
6
-16
6
-9
26
-16
-2
2
7
-5
4
-25
8
-13
12
-11
1
9
6
-3
18
-40
-2
-12
11
-23
16
-3
9
2
13
-49
9
-25
7
-38
23
-21
0
-15
23
-39
6
-14
10
-31
24
-13
-6
-6
33
-36
2
-30
-7
-40
20
-20
-13
-11
29
-21
10
-26
-22
-21
23
-15
-2
-10
24
-27
16
-24
-27
-27
22
-19
10
-31
12
-20
6
-18
-47
-31
27
-26
12
-22
12
-10
14
-15
-45
-20
17
-22
9
-27
16
-15
9
-8
-44
-23
18
-29
20
-25
18
4
1
-14
-41
-25
19
-20
20
-26
24
-6
1
-17
-21
-15
9
-31
13
-35
27
7
-5
-30
-26
-31
9
-29
10
-27
8
1
15
-23
-11
-28
4
-30
-7
-27
10
14
19
-38
2
-14
2
-23
-9
-32
15
14
15
-34
1
-14
-11
-24
-1
-16
1
19
35
-27
5
-31
-18
-13
-7
-20
-1
9
39
-31
16
-24
-13
-13
-4
-16
-5
-12
30
-22
15
-16
-23
-13
3
-22
-13
-26
35
-16
25
-15
-6
2
10
-15
-8
-20
12
0
13
-5
-18
-4
13
-7
-3
-20
19
-1
22
6
-5
-5
3
0
10
-21
-6
-15
16
5
-11
7
9
4
7
-29
-7
-5
19
-9
-4
13
19
-3
19
-24
-1
-16
28
-14
-9
1
13
-13
21
-31
2
-10
28
-3
-4
2
8
-6
11
-26
1
0
23
1
-5
9
10
-13
19
-29
-5
-4
9
-9
-4
7
4
-7
13
-35
2
-12
25
-22
-5
-8
-4
-1
20
-37
13
-12
11
-24
2
-8
11
5
16
-40
10
-31
14
-12
-1
-20
-9
1
24
-29
22
-18
-6
-30
-12
-22
-10
-1
28
-33
23
-38
-8
-22
3
-30
-11
-19
20
-24
19
-22
-24
-18
15
-32
12
-20
22
-27
21
-28
-28
-23
14
-51
10
-19
18
-21
10
-35
-31
-15
7
-49
17
-22
23
-27
24
-29
-23
-18
14
-40
9
-29
32
-34
15
-28
-26
-20
1
-42
2
-12
22
-21
18
-27
-13
-19
-2
-42
-6
-16
29
-11
12
-27
-2
-24
-9
-47
-12
-24
20
-24
36
-31
6
-25
-15
-48
5
-23
22
-9
32
-23
20
-17
-18
-35
-15
-15
8
-18
34
-18
12
-15
-9
-22
4
-10
21
-14
36
-22
18
-22
-13
-13
5
-5
1
-23
32
-22
23
-7
-18
-6
11
-16
2
-30
24
-13
13
-17
-15
-3
15
-14
13
-16
5
-8
31
-12
-17
8
20
3
2
-33
11
-5
34
2
-15
9
18
-9
19
-26
-2
0
17
-1
-4
-1
3
-1
3
-33
5
-16
26
-11
-6
8
9
-4
13
-32
2
-1
21
3
-18
1
11
-8
6
-32
-4
-7
18
1
-7
13
13
-6
10
-30
10
1
25
-9
-19
0
15
-8
11
-16
8
-17
21
-13
-14
13
12
-9
4
-28
-2
-2
23
0
-5
6
18
-1
3
-34
3
-4
29
-6
-3
-7
12
6
6
-23
6
-7
27
-14
-11
-6
14
5
4
-22
-2
-4
25
-5
-12
1
-5
-3
20
-18
7
-10
11
-11
1
-3
0
2
7
-27
18
-9
18
-6
-2
-12
13
-3
21
-27
16
-11
3
-17
-12
-30
4
-12
20
-31
12
-7
4
-20
-16
-21
2
-14
6
-23
19
-11
3
-17
-4
-23
8
-13
27
-17
7
-16
7
-19
-20
-21
10
-3
22
-24
4
-18
8
-12
-22
-26
-2
-13
30
-32
14
-11
22
-9
-19
-43
-3
-14
32
-21
8
-15
8
-18
-10
-33
8
0
27
-22
9
-20
23
-19
-5
-29
-5
-11
31
-32
6
-20
20
-8
-10
-15
3
-7
15
-24
14
-15
16
-1
-5
-14
11
-13
16
-18
19
-10
33
-9
-20
-5
1
-3
12
-23
1
-6
18
-10
-13
-1
3
-10
22
-28
-6
-3
22
1
-5
-2
13
1
6
-24
-8
-4
19
3
-11
-2
2
2
14
-33
-6
-4
16
-10
-7
-2
15
2
17
-33
9
